{"learner":{"attributes":{"best_iteration":"99","best_ntree_limit":"100","scikit_learn":"{\"n_estimators\": 100, \"objective\": \"reg:squarederror\", \"max_depth\": null, \"max_leaves\": null, \"max_bin\": null, \"grow_policy\": null, \"learning_rate\": null, \"verbosity\": null, \"booster\": null, \"tree_method\": null, \"gamma\": null, \"min_child_weight\": null, \"max_delta_step\": null, \"subsample\": null, \"sampling_method\": null, \"colsample_bytree\": null, \"colsample_bylevel\": null, \"colsample_bynode\": null, \"reg_alpha\": null, \"reg_lambda\": null, \"scale_pos_weight\": null, \"base_score\": null, \"missing\": NaN, \"num_parallel_tree\": null, \"random_state\": null, \"n_jobs\": null, \"monotone_constraints\": null, \"interaction_constraints\": null, \"importance_type\": null, \"gpu_id\": null, \"validate_parameters\": null, \"predictor\": null, \"enable_categorical\": false, \"feature_types\": null, \"max_cat_to_onehot\": null, \"max_cat_threshold\": null, \"eval_metric\": null, \"early_stopping_rounds\": null, \"callbacks\": null, \"_estimator_type\": \"regressor\"}"},"feature_names":[],"feature_types":[],"gradient_booster":{"model":{"gbtree_model_param":{"num_parallel_tree":"1","num_trees":"100","size_leaf_vector":"0"},"tree_info":[0,0,0,0,0,0,0,0,0,0,0,0,0,0,0,0,0,0,0,0,0,0,0,0,0,0,0,0,0,0,0,0,0,0,0,0,0,0,0,0,0,0,0,0,0,0,0,0,0,0,0,0,0,0,0,0,0,0,0,0,0,0,0,0,0,0,0,0,0,0,0,0,0,0,0,0,0,0,0,0,0,0,0,0,0,0,0,0,0,0,0,0,0,0,0,0,0,0,0,0],"trees":[{"base_weights":[1.4918825E2,1.1775E2,2.0748695E2,1.0121646E2,1.6490909E2,1.8706395E2,2.5911667E2,1.3016072E2,9.456204E1,1.0836364E2,1.7506667E2,1.722388E2,2.27375E2,2.725E1,1.3296297E2,8.7747574E1,1.1191428E2,1.1375E2,2.725E1,5.5666668E1,1.7932558E2,1.09208336E2,1.8266965E2,6.375E1,2.3263158E2,9.6375E1,1.5209375E2,1.02515625E2,7.996528E1,6.525E1,1.1751667E2,1.8160715E2,4.175E1,6.575E1,2.3825E2,3.9333332E1,1.0385E2,1.975E1,1.04548386E2,8.1246376E1,3.7875E1,7.06E1,1.925E1,4.5E1,1.2108929E2],"categories":[],"categories_nodes":[],"categories_segments":[],"categories_sizes":[],"default_left":[1,1,1,1,1,1,0,1,1,1,1,1,1,0,1,1,1,0,0,0,1,0,0,0,1,1,0,1,1,1,1,0,0,0,0,0,0,0,0,0,0,0,0,0,0],"id":0,"left_children":[1,3,5,7,9,11,-1,13,15,17,19,21,23,-1,25,27,29,-1,-1,-1,31,-1,-1,-1,33,35,-1,37,39,41,43,-1,-1,-1,-1,-1,-1,-1,-1,-1,-1,-1,-1,-1,-1],"loss_changes":[5.84061E5,1.532845E5,7.27885E4,1.92795E4,1.2619375E4,1.223225E4,0E0,4.4514375E3,6.379375E3,1.7062969E3,1.2900625E4,2.410075E4,2.371875E3,0E0,4.2407812E3,3.640125E3,1.482125E3,0E0,0E0,0E0,5.915125E3,0E0,0E0,0E0,2.1496875E3,1.031875E3,0E0,3.3189375E3,8.0515625E2,1.1755078E2,2.3232188E3,0E0,0E0,0E0,0E0,0E0,0E0,0E0,0E0,0E0,0E0,0E0,0E0,0E0,0E0],"parents":[2147483647,0,0,1,1,2,2,3,3,4,4,5,5,7,7,8,8,9,9,10,10,11,11,12,12,14,14,15,15,16,16,20,20,24,24,25,25,27,27,28,28,29,29,30,30],"right_children":[2,4,6,8,10,12,-1,14,16,18,20,22,24,-1,26,28,30,-1,-1,-1,32,-1,-1,-1,34,36,-1,38,40,42,44,-1,-1,-1,-1,-1,-1,-1,-1,-1,-1,-1,-1,-1,-1],"split_conditions":[5.6939614E-1,3.8412017E-1,6.9285715E-1,2.331081E-1,3.1626093E-1,5.815451E-1,7.7735E1,2.638318E-1,6.25E-1,3.0242035E-1,2.0714286E-1,3.214286E-1,5.9013945E-1,8.175E0,1.6891891E-1,3.1127453E-1,2.3807143E-1,3.4125E1,8.175E0,1.67E1,8.210784E-1,3.27625E1,5.4800896E1,1.9125E1,1.7430279E-1,2.916667E-1,4.5628128E1,7.3529415E-2,5.916667E-1,3.0042917E-1,1.802789E-1,5.4482147E1,1.2525001E1,1.9725E1,7.1475006E1,1.18E1,3.1155E1,5.925E0,3.1364517E1,2.4373915E1,1.13625E1,2.118E1,5.775E0,1.3500001E1,3.6326786E1],"split_indices":[8,2,3,6,8,2,0,8,0,8,3,3,8,0,6,4,3,0,0,0,4,0,0,0,5,0,0,4,0,2,5,0,0,0,0,0,0,0,0,0,0,0,0,0,0],"split_type":[0,0,0,0,0,0,0,0,0,0,0,0,0,0,0,0,0,0,0,0,0,0,0,0,0,0,0,0,0,0,0,0,0,0,0,0,0,0,0,0,0,0,0,0,0],"sum_hessian":[3.31E2,2.17E2,1.14E2,1.63E2,5.4E1,8.5E1,2.9E1,2.7E1,1.36E2,1E1,4.4E1,6.6E1,1.9E1,1E0,2.6E1,1.02E2,3.4E1,9E0,1E0,2E0,4.2E1,1.1E1,5.5E1,1E0,1.8E1,1.1E1,1.5E1,3.1E1,7.1E1,5E0,2.9E1,4.1E1,1E0,1E0,1.7E1,2E0,9E0,1E0,3E1,6.8E1,3E0,4E0,1E0,2E0,2.7E1],"tree_param":{"num_deleted":"0","num_feature":"10","num_nodes":"45","size_leaf_vector":"0"}},{"base_weights":[1.0638417E2,8.413405E1,1.4763759E2,7.235497E1,1.177274E2,1.3019203E2,1.795617E2,8.1862465E1,5.9981247E1,8.561183E1,1.2763044E2,4.4574642E1,1.3421764E2,1.85358E2,8.395375E1,6.1138996E1,8.932608E1,4.3572414E1,6.4770454E1,1.71875E1,8.902762E1,4.4533333E1,1.3083205E2,8.783631E1,1.4092174E2,9.5596664E1,2.4512497E1,2.957043E1,6.875047E1,9.159447E1,3.240164E1,6.728065E1,2.5710293E1,9.245689E1,2.0508926E1,1.3290811E2,2.7008926E1,9.612151E1,-1.6504478E0,1.6693933E2,1.26804924E2,3.347782E1,3.0630426E0,7.073169E1,1.4563043E1,2.5753855E1,9.338985E1,3.6826828E1,9.563043E0,7.422598E1,4.7014538E1,8.2765625E1,1.4184917E2,1.0565129E2,3.5491665E1,1.0184835E2,1.4624825E2],"categories":[],"categories_nodes":[],"categories_segments":[],"categories_sizes":[],"default_left":[1,1,1,1,1,1,1,1,1,1,1,0,1,0,1,1,1,0,1,0,1,0,1,1,1,0,0,1,1,1,1,1,0,0,0,1,0,1,0,0,1,0,0,0,0,0,0,0,0,0,0,0,0,0,0,0,0],"id":1,"left_children":[1,3,5,7,9,11,13,15,17,19,21,-1,23,-1,25,27,29,-1,31,-1,33,-1,35,37,39,-1,-1,41,43,45,47,49,-1,-1,-1,51,-1,53,-1,-1,55,-1,-1,-1,-1,-1,-1,-1,-1,-1,-1,-1,-1,-1,-1,-1,-1],"loss_changes":[2.9231925E5,7.7744125E4,4.066975E4,1.43833125E4,6.565625E3,2.0901E4,5.496875E3,8.459125E3,3.0716875E3,2.2094062E3,4.8153125E3,0E0,1.0631875E4,0E0,4.2496484E2,4.454672E3,5.2963125E3,0E0,3.7609219E3,0E0,1.6283516E3,0E0,4.6009375E3,9.055641E3,1.97025E3,0E0,0E0,6.224795E2,1.2244375E3,4.8055625E3,5.2083496E1,3.8295469E3,0E0,0E0,0E0,4.847875E3,0E0,2.6059375E3,0E0,0E0,6.940625E3,0E0,0E0,0E0,0E0,0E0,0E0,0E0,0E0,0E0,0E0,0E0,0E0,0E0,0E0,0E0,0E0],"parents":[2147483647,0,0,1,1,2,2,3,3,4,4,5,5,6,6,7,7,8,8,9,9,10,10,12,12,14,14,15,15,16,16,18,18,20,20,22,22,23,23,24,24,27,27,28,28,29,29,30,30,31,31,35,35,37,37,40,40],"right_children":[2,4,6,8,10,12,14,16,18,20,22,-1,24,-1,26,28,30,-1,32,-1,34,-1,36,38,40,-1,-1,42,44,46,48,50,-1,-1,-1,52,-1,54,-1,-1,56,-1,-1,-1,-1,-1,-1,-1,-1,-1,-1,-1,-1,-1,-1,-1,-1],"split_conditions":[5.6939614E-1,3.8412017E-1,5.815451E-1,4.1216215E-1,3.8588542E-1,1.8333334E-1,8.2843137E-1,3.8636363E-1,2.7142859E-1,1.0810811E-1,2.0714286E-1,1.3372394E1,3.452143E-1,5.5607403E1,3.9999998E-1,2.4006745E-1,3.497854E-1,1.3071725E1,3.7124464E-1,5.15625E0,5.194223E-1,1.3360001E1,5.54054E-1,3.3571428E-1,1.8243244E-1,2.8679E1,7.3537493E0,2.9613733E-1,3.8513514E-1,9.656653E-2,4.3333334E-1,5E-1,7.713088E0,2.7737066E1,6.152678E0,3.0147058E-1,8.102678E0,4.189189E-1,-4.9513438E-1,5.0081802E1,5.681818E-1,1.0043346E1,9.189128E-1,2.1219507E1,4.368913E0,7.7261567E0,2.8016954E1,1.1048049E1,2.868913E0,2.2267796E1,1.4104362E1,2.4829689E1,4.2554752E1,3.1695389E1,1.06475E1,3.0554506E1,4.3874474E1],"split_indices":[8,2,2,6,8,0,4,9,3,6,3,0,3,0,0,8,2,0,2,0,5,0,6,3,6,0,0,2,6,2,0,1,0,0,0,4,0,6,0,0,9,0,0,0,0,0,0,0,0,0,0,0,0,0,0,0,0],"split_type":[0,0,0,0,0,0,0,0,0,0,0,0,0,0,0,0,0,0,0,0,0,0,0,0,0,0,0,0,0,0,0,0,0,0,0,0,0,0,0,0,0,0,0,0,0,0,0,0,0,0,0,0,0,0,0,0,0],"sum_hessian":[3.31E2,2.17E2,1.14E2,1.63E2,5.4E1,7.7E1,3.7E1,8.9E1,7.4E1,1.5E1,3.9E1,4E0,7.3E1,3.4E1,3E0,2.6E1,6.3E1,1.9E1,5.5E1,1E0,1.4E1,2E0,3.7E1,1.1E1,6.2E1,2E0,1E0,6E0,2E1,6E1,3E0,5.1E1,4E0,1.3E1,1E0,3.6E1,1E0,1E1,1E0,1.8E1,4.4E1,5E0,1E0,1.9E1,1E0,2E0,5.8E1,2E0,1E0,3.6E1,1.5E1,7E0,2.9E1,8E0,2E0,2.2E1,2.2E1],"tree_param":{"num_deleted":"0","num_feature":"10","num_nodes":"57","size_leaf_vector":"0"}},{"base_weights":[7.6103355E1,5.899123E1,1.0433183E2,5.0622944E1,8.392389E1,9.339764E1,1.3547905E2,7.6917114E1,4.6933384E1,5.867833E1,9.281293E1,5.8536343E1,9.920242E1,3.1105247E1,1.3800555E2,8.439532E1,1.1394321E1,2.3070581E1,4.8374695E1,7.116468E1,1.6975426E1,9.928293E1,3.2842327E1,6.826675E1,1.2278458E1,4.5487225E1,1.0143102E2,3.3445263E1,1.4054538E2,5.3593403E1,1.08498055E2,2.4183495E1,6.5271797E0,5.7296192E1,4.2309982E1,8.107293E1,3.1079947E1,3.0741955E1,-2.4495773E0,5.9477135E1,1.1467296E2,2.7272566E1,7.783774E1,2.0723E0,1.4989743E1,5.791477E1,1.7897272E1,9.1294586E1,1.2363148E2,1.9534145E1,6.736734E1,5.836103E1,2.0271797E0,3.7837177E1,6.348376E1,3.728556E1,6.231552E0,9.293966E0,3.6818966E1,-6.268448E0,2.5940819E0,6.817854E1,-1.3768448E1,1.219352E2,2.8033678E1,2.8730497E1,8.652324E1,1.0450204E2,5.4847946E1,4.3770733E1,1.2973415E2],"categories":[],"categories_nodes":[],"categories_segments":[],"categories_sizes":[],"default_left":[1,1,1,1,1,1,1,1,1,1,1,1,1,0,1,1,0,1,1,1,1,1,0,1,1,1,1,0,0,1,0,0,0,1,1,0,1,1,1,1,1,0,1,0,0,0,0,1,1,0,0,0,0,0,0,0,0,0,0,0,0,0,0,0,0,0,0,0,0,0,0],"id":2,"left_children":[1,3,5,7,9,11,13,15,17,19,21,23,25,-1,27,29,-1,31,33,35,37,39,-1,41,43,45,47,-1,-1,49,-1,-1,-1,51,53,-1,55,57,59,61,63,-1,65,-1,-1,-1,-1,67,69,-1,-1,-1,-1,-1,-1,-1,-1,-1,-1,-1,-1,-1,-1,-1,-1,-1,-1,-1,-1,-1,-1],"loss_changes":[1.5421775E5,3.9358062E4,2.957725E4,1.1815219E4,5.9987812E3,1.34174375E4,3.6183125E3,7.85825E3,3.7679062E3,7.123422E3,1.0707656E4,6.3635117E3,4.963E3,0E0,3.0008125E3,6.063789E3,0E0,2.6263184E1,4.7719688E3,2.246289E3,1.4123792E3,1.27831875E4,0E0,2.9777812E3,7.962396E1,6.7786035E2,5.8156875E3,0E0,0E0,2.906207E3,0E0,0E0,0E0,2.8831719E3,5.458547E3,0E0,3.8445142E2,4.8824707E1,7.4044106E1,7.9494453E3,1.0424E4,0E0,1.7793555E3,0E0,0E0,0E0,0E0,2.1224875E4,4.5560938E3,0E0,0E0,0E0,0E0,0E0,0E0,0E0,0E0,0E0,0E0,0E0,0E0,0E0,0E0,0E0,0E0,0E0,0E0,0E0,0E0,0E0,0E0],"parents":[2147483647,0,0,1,1,2,2,3,3,4,4,5,5,6,6,7,7,8,8,9,9,10,10,11,11,12,12,14,14,15,15,17,17,18,18,19,19,20,20,21,21,23,23,24,24,25,25,26,26,29,29,33,33,34,34,36,36,37,37,38,38,39,39,40,40,42,42,47,47,48,48],"right_children":[2,4,6,8,10,12,14,16,18,20,22,24,26,-1,28,30,-1,32,34,36,38,40,-1,42,44,46,48,-1,-1,50,-1,-1,-1,52,54,-1,56,58,60,62,64,-1,66,-1,-1,-1,-1,68,70,-1,-1,-1,-1,-1,-1,-1,-1,-1,-1,-1,-1,-1,-1,-1,-1,-1,-1,-1,-1,-1,-1],"split_conditions":[5.501809E-1,3.8412017E-1,6.9285715E-1,2.027027E-1,3.2857144E-1,2.7038628E-1,3.7121212E-1,7E-1,1.3571429E-1,3.243243E-1,5.194223E-1,5.476428E-1,1.8333334E-1,9.331574E0,2.167382E-1,1.6891891E-1,3.4182966E0,5E-1,2.8486055E-1,5E-1,2.7857143E-1,3.182271E-1,9.852698E0,3.5833335E-1,5E-1,1.4166668E-1,7.32146E-1,1.0033579E1,4.2163616E1,4.6734816E-1,3.254942E1,7.2550488E0,1.958154E0,7.1212125E-1,5.1095617E-1,2.432188E1,6.666666E-1,3.8333333E-1,3.1666666E-1,9E-1,7.4285716E-1,8.18177E0,2.6664287E-1,6.2169003E-1,4.496923E0,1.7374432E1,5.3691816E0,6.519608E-1,4.2156863E-1,5.860244E0,2.0210203E1,1.750831E1,6.0815394E-1,1.1351153E1,1.904513E1,1.1185669E1,1.8694657E0,2.78819E0,1.1045691E1,-1.8805344E0,7.782246E-1,2.0453564E1,-4.1305346E0,3.6580563E1,8.410104E0,8.619149E0,2.5956972E1,3.1350613E1,1.6454384E1,1.3131221E1,3.8920246E1],"split_indices":[8,2,3,6,3,2,9,3,3,6,5,3,0,0,2,6,0,1,5,1,3,5,0,0,1,0,8,0,0,8,0,0,0,9,5,0,0,0,0,0,3,0,3,0,0,0,0,4,4,0,0,0,0,0,0,0,0,0,0,0,0,0,0,0,0,0,0,0,0,0,0],"split_type":[0,0,0,0,0,0,0,0,0,0,0,0,0,0,0,0,0,0,0,0,0,0,0,0,0,0,0,0,0,0,0,0,0,0,0,0,0,0,0,0,0,0,0,0,0,0,0,0,0,0,0,0,0,0,0,0,0,0,0,0,0,0,0,0,0,0,0,0,0,0,0],"sum_hessian":[3.31E2,2.08E2,1.23E2,1.58E2,5E1,9.4E1,2.9E1,1.7E1,1.41E2,1.5E1,3.5E1,1.5E1,7.9E1,1E0,2.8E1,1.5E1,2E0,9E0,1.32E2,1.1E1,4E0,3.1E1,4E0,1.2E1,3E0,4E0,7.5E1,1E0,2.7E1,8E0,7E0,8E0,1E0,5E1,8.2E1,8E0,3E0,2E0,2E0,1E1,2.1E1,3E0,9E0,1E0,2E0,2E0,2E0,5.5E1,2E1,3E0,5E0,4.9E1,1E0,7E1,1.2E1,2E0,1E0,1E0,1E0,1E0,1E0,9E0,1E0,1.9E1,2E0,2E0,7E0,3.9E1,1.6E1,2E0,1.8E1],"tree_param":{"num_deleted":"0","num_feature":"10","num_nodes":"71","size_leaf_vector":"0"}},{"base_weights":[5.4697178E1,3.6599503E1,6.90551E1,3.1851408E1,6.0002014E1,5.8777096E1,8.881603E1,3.3309048E1,-2.8528652E0,8.5510925E1,3.8995934E1,5.589215E1,9.901229E1,4.2685116E1,9.30724E1,3.9940693E1,2.5663239E1,-9.869156E0,3.122569E0,-1.5407814E1,9.8436104E1,1.7882313E1,5.108476E1,6.538834E1,4.3825813E1,8.695229E0,5.4542023E1,1.0230848E2,6.640892E1,4.220672E1,5.2134514E0,2.877114E1,1.6292475E1,-3.1005516E0,-1.1703182E1,-1.2197304E0,4.976579E0,1.2334976E2,7.492195E0,-6.478971E0,2.892262E1,5.433873E1,1.2526501E1,6.967467E1,4.1008064E1,3.0687332E1,5.9517715E1,5.188252E1,1.0658909E2,8.203407E1,2.4090464E1,5.224075E1,3.1458536E1,-2.5401294E0,1.1229215E1,2.018239E1,3.4729633E1,7.1731E0,2.5655132E1,7.335285E0,3.2485634E1,5.8282173E1,1.3367302E1,6.0010193E1,9.4795334E1,-6.0534835E0,5.1025723E1,4.1139328E1,3.579007E0,1.5206902E1,6.761953E1,1.0708488E1,5.9498905E1,5.7069103E1,1.11137825E2,8.709442E1,1.3185123E1],"categories":[],"categories_nodes":[],"categories_segments":[],"categories_sizes":[],"default_left":[1,1,1,1,1,1,1,1,1,1,1,1,0,1,1,1,1,1,1,0,1,1,1,1,1,0,0,1,1,1,1,1,1,0,0,0,0,0,0,0,1,1,0,1,1,1,1,1,1,1,0,0,0,0,0,0,0,0,0,0,0,0,0,0,0,0,0,0,0,0,0,0,0,0,0,0,0],"id":3,"left_children":[1,3,5,7,9,11,13,15,17,19,21,23,-1,25,27,29,31,33,35,-1,37,39,41,43,45,-1,-1,47,49,51,53,55,57,-1,-1,-1,-1,-1,-1,-1,59,61,-1,63,65,67,69,71,73,75,-1,-1,-1,-1,-1,-1,-1,-1,-1,-1,-1,-1,-1,-1,-1,-1,-1,-1,-1,-1,-1,-1,-1,-1,-1,-1,-1],"loss_changes":[8.374106E4,1.4645344E4,3.2150562E4,6.4688984E3,9.525633E3,8.8594375E3,8.0045625E3,5.110203E3,2.8236942E2,1.4560609E4,2.9150684E3,1.0655281E4,0E0,2.3468496E3,6.7504062E3,4.7376016E3,1.2495273E3,9.550781E-1,3.8272755E1,0E0,1.9467547E4,2.0700815E3,4.4853125E2,3.830875E3,9.512781E3,0E0,0E0,2.8881875E3,9.264711E3,4.719586E3,2.617422E2,1.4996406E3,1.26746E3,0E0,0E0,0E0,0E0,0E0,0E0,0E0,1.4628809E2,5.134746E2,0E0,7.1785312E3,5.96624E3,8.91952E3,7.587664E3,9.308428E2,1.5413125E3,3.0324453E3,0E0,0E0,0E0,0E0,0E0,0E0,0E0,0E0,0E0,0E0,0E0,0E0,0E0,0E0,0E0,0E0,0E0,0E0,0E0,0E0,0E0,0E0,0E0,0E0,0E0,0E0,0E0],"parents":[2147483647,0,0,1,1,2,2,3,3,4,4,5,5,6,6,7,7,8,8,9,9,10,10,11,11,13,13,14,14,15,15,16,16,17,17,18,18,20,20,21,21,22,22,23,23,24,24,27,27,28,28,29,29,30,30,31,31,32,32,40,40,41,41,43,43,44,44,45,45,46,46,47,47,48,48,49,49],"right_children":[2,4,6,8,10,12,14,16,18,20,22,24,-1,26,28,30,32,34,36,-1,38,40,42,44,46,-1,-1,48,50,52,54,56,58,-1,-1,-1,-1,-1,-1,-1,60,62,-1,64,66,68,70,72,74,76,-1,-1,-1,-1,-1,-1,-1,-1,-1,-1,-1,-1,-1,-1,-1,-1,-1,-1,-1,-1,-1,-1,-1,-1,-1,-1,-1],"split_conditions":[4.4581443E-1,5.5E-1,6.287879E-1,5.3335714E-1,5E-1,6.5021455E-1,2.6609442E-1,4.1216215E-1,5E-1,3.1787685E-1,2.7896994E-1,5.0757575E-1,2.9703688E1,6.4166665E-1,5.0647414E-1,4.381389E-1,3.7908804E-1,7E-1,2.639485E-1,-4.6223445E0,4.2628306E-1,4.4362745E-1,5.6437767E-1,4.9785408E-1,4.2060083E-1,2.6085687E0,1.6362608E1,3.25E-1,5.083333E-1,5E-1,2.6609442E-1,3.2378572E-1,5E-1,-9.301655E-1,-3.5109549E0,-3.659191E-1,1.4929738E0,3.700493E1,2.2476587E0,-1.9436914E0,5.25E-1,4.0546948E-1,3.7579503E0,3.583691E-1,3.5714287E-1,5.285714E-1,4.0833333E-1,5E-1,1.9252467E-1,3.9864865E-1,7.2271395E0,1.5672225E1,9.437561E0,-7.620389E-1,3.3687646E0,6.0547175E0,1.041889E1,2.15193E0,7.69654E0,2.2005856E0,9.74569E0,1.7484653E1,4.010191E0,1.800306E1,2.84386E1,-1.8160452E0,1.5307717E1,1.2341799E1,1.0737021E0,4.562071E0,2.028586E1,3.2125466E0,1.7849672E1,1.7120731E1,3.334135E1,2.6128328E1,3.955537E0],"split_indices":[8,3,9,3,9,2,2,6,1,8,2,9,0,0,5,8,8,0,2,0,8,4,2,2,2,0,0,0,0,1,2,3,0,0,0,0,0,0,0,0,0,8,0,2,3,3,0,1,7,6,0,0,0,0,0,0,0,0,0,0,0,0,0,0,0,0,0,0,0,0,0,0,0,0,0,0,0],"split_type":[0,0,0,0,0,0,0,0,0,0,0,0,0,0,0,0,0,0,0,0,0,0,0,0,0,0,0,0,0,0,0,0,0,0,0,0,0,0,0,0,0,0,0,0,0,0,0,0,0,0,0,0,0,0,0,0,0,0,0,0,0,0,0,0,0,0,0,0,0,0,0,0,0,0,0,0,0],"sum_hessian":[3.31E2,1.48E2,1.83E2,1.25E2,2.3E1,1.23E2,6E1,1.2E2,5E0,9E0,1.4E1,1.17E2,6E0,6E0,5.4E1,6.2E1,5.8E1,2E0,3E0,1E0,8E0,6E0,8E0,6.3E1,5.4E1,2E0,4E0,3.8E1,1.6E1,5.8E1,4E0,4.2E1,1.6E1,1E0,1E0,1E0,2E0,6E0,2E0,2E0,4E0,7E0,1E0,5.2E1,1.1E1,3.1E1,2.3E1,4E0,3.4E1,1.1E1,5E0,2.8E1,3E1,2E0,2E0,1.9E1,2.3E1,9E0,7E0,1E0,3E0,6E0,1E0,4E1,1.2E1,2E0,9E0,2.2E1,9E0,4E0,1.9E1,1E0,3E0,4E0,3E1,1E1,1E0],"tree_param":{"num_deleted":"0","num_feature":"10","num_nodes":"77","size_leaf_vector":"0"}},{"base_weights":[3.942151E1,2.3924263E1,4.854523E1,4.3964664E1,1.9688334E1,4.4041435E1,7.2839775E1,7.653482E0,5.205827E1,-1.5296522E1,2.1225323E1,3.5857864E1,5.4802094E1,1.47666E1,7.853452E1,1.37319E1,-9.760971E-1,5.836665E1,1.6964365E1,-1.9531807E1,8.223076E-1,2.1901915E1,-8.177361E0,2.628189E1,4.2442215E1,3.8799713E1,6.2501324E1,6.375885E-2,1.9646294E1,8.927975E1,5.381193E1,-1.4202614E0,-4.3884277E-2,1.1200198E1,6.529437E1,2.6569506E1,1.6172464E1,-1.5418369E1,3.1523285E0,4.622668E1,1.6734737E1,4.499456E1,1.6689539E1,9.6448145E0,4.6670406E1,6.806463E1,3.9675747E1,3.365788E1,7.126522E1,1.8651218E1,-1.8509216E0,7.7464695E0,6.982178E1,1.9009487E1,4.146075E1,5.899816E0,2.4976402E1,6.2015965E1,2.157797E1,-5.1084316E-1,2.7107628E1,6.1678905E1,3.566178E1,2.999866E1,5.3661575E0,2.2401468E1,6.1858367E-2,5.597858E1,2.0057123E1,1.9610281E1,7.021181E1,5.3157716E0,5.6191265E1,1.0681419E1,4.071218E1],"categories":[],"categories_nodes":[],"categories_segments":[],"categories_sizes":[],"default_left":[1,1,1,1,1,1,1,1,1,1,1,1,1,1,1,0,1,1,0,0,0,1,1,1,1,1,1,0,0,0,1,0,0,1,1,1,1,0,0,1,1,1,1,1,1,1,1,1,0,0,0,0,0,0,0,0,0,0,0,0,0,0,0,0,0,0,0,0,0,0,0,0,0,0,0],"id":4,"left_children":[1,3,5,7,9,11,13,15,17,19,21,23,25,27,29,-1,31,33,-1,-1,-1,35,37,39,41,43,45,-1,-1,-1,47,-1,-1,49,51,53,55,-1,-1,57,59,61,63,65,67,69,71,73,-1,-1,-1,-1,-1,-1,-1,-1,-1,-1,-1,-1,-1,-1,-1,-1,-1,-1,-1,-1,-1,-1,-1,-1,-1,-1,-1],"loss_changes":[4.5780906E4,9.745625E3,1.9550906E4,5.7732305E3,5.970668E3,1.370975E4,9.092375E3,2.756746E2,2.7734023E3,3.574004E2,2.1883594E3,5.4418906E3,6.8153906E3,2.8572888E2,2.6338906E3,0E0,1.1798398E0,3.8432773E3,0E0,0E0,0E0,2.217836E3,2.947189E2,7.795125E3,3.192836E3,5.745547E3,3.5217969E3,0E0,0E0,0E0,1.470666E3,0E0,0E0,3.2625443E2,2.5856367E3,5.178492E3,4.1033135E3,0E0,0E0,4.110418E3,5.738217E3,6.208836E3,8.939523E2,8.543395E2,4.0793672E3,2.5766406E3,6.5109727E3,6.997168E2,0E0,0E0,0E0,0E0,0E0,0E0,0E0,0E0,0E0,0E0,0E0,0E0,0E0,0E0,0E0,0E0,0E0,0E0,0E0,0E0,0E0,0E0,0E0,0E0,0E0,0E0,0E0],"parents":[2147483647,0,0,1,1,2,2,3,3,4,4,5,5,6,6,7,7,8,8,9,9,10,10,11,11,12,12,13,13,14,14,16,16,17,17,21,21,22,22,23,23,24,24,25,25,26,26,30,30,33,33,34,34,35,35,36,36,39,39,40,40,41,41,42,42,43,43,44,44,45,45,46,46,47,47],"right_children":[2,4,6,8,10,12,14,16,18,20,22,24,26,28,30,-1,32,34,-1,-1,-1,36,38,40,42,44,46,-1,-1,-1,48,-1,-1,50,52,54,56,-1,-1,58,60,62,64,66,68,70,72,74,-1,-1,-1,-1,-1,-1,-1,-1,-1,-1,-1,-1,-1,-1,-1,-1,-1,-1,-1,-1,-1,-1,-1,-1,-1,-1,-1],"split_conditions":[2.725322E-1,2.331081E-1,6.330472E-1,1.0135135E-1,2.635135E-1,5.1907146E-1,4.0337935E-1,3.6907142E-1,6.9696975E-1,6.4166665E-1,2.6824033E-1,3.7699205E-1,5.357783E-1,4.0833333E-1,4.3924302E-1,4.1195703E0,4.0000004E-1,2.916667E-1,5.0893097E0,-5.8595424E0,2.4669228E-1,2.918327E-1,3.166667E-1,2.9656863E-1,5.7432437E-1,5.6428576E-1,6.862745E-1,1.9127656E-2,5.8938885E0,2.6783926E1,6.8939394E-1,-4.2607844E-1,-1.3165284E-2,2.25E-1,2.638318E-1,2.50996E-1,4.8284313E-1,-4.625511E0,9.4569856E-1,5E-1,4.42003E-1,4.6165338E-1,3.1060606E-1,2.77027E-1,4.5343137E-1,6.081081E-2,6.75238E-1,6.2679595E-1,2.1379566E1,5.5953655E0,-5.552765E-1,2.323941E0,2.0946533E1,5.7028465E0,1.2438226E1,1.7699449E0,7.492921E0,1.860479E1,6.4733915E0,-1.5325296E-1,8.132289E0,1.8503672E1,1.0698535E1,8.9995985E0,1.6098473E0,6.720441E0,1.8557511E-2,1.6793575E1,6.017137E0,5.8830843E0,2.1063543E1,1.5947316E0,1.685738E1,3.204426E0,1.22136545E1],"split_indices":[2,6,2,6,6,3,8,3,9,0,2,5,8,0,5,0,0,0,0,0,0,5,0,4,6,3,4,0,0,0,9,0,0,0,8,5,4,0,0,1,8,5,9,6,4,6,8,8,0,0,0,0,0,0,0,0,0,0,0,0,0,0,0,0,0,0,0,0,0,0,0,0,0,0,0],"split_type":[0,0,0,0,0,0,0,0,0,0,0,0,0,0,0,0,0,0,0,0,0,0,0,0,0,0,0,0,0,0,0,0,0,0,0,0,0,0,0,0,0,0,0,0,0,0,0,0,0,0,0,0,0,0,0,0,0,0,0,0,0,0,0,0,0,0,0,0,0,0,0,0,0,0,0],"sum_hessian":[3.31E2,1.24E2,2.07E2,2E1,1.04E2,1.77E2,3E1,4E0,1.6E1,4E0,1E2,1.03E2,7.4E1,3E0,2.7E1,2E0,2E0,1.3E1,3E0,3E0,1E0,9.8E1,2E0,4.4E1,5.9E1,2.6E1,4.8E1,1E0,2E0,1.7E1,1E1,1E0,1E0,2E0,1.1E1,5.2E1,4.6E1,1E0,1E0,1.3E1,3.1E1,5.3E1,6E0,6E0,2E1,3.7E1,1.1E1,6E0,4E0,1E0,1E0,1E0,1E1,3.6E1,1.6E1,2.2E1,2.4E1,7E0,6E0,1.2E1,1.9E1,1.7E1,3.6E1,2E0,4E0,2E0,4E0,1.4E1,6E0,2E0,3.5E1,4E0,7E0,2E0,4E0],"tree_param":{"num_deleted":"0","num_feature":"10","num_nodes":"75","size_leaf_vector":"0"}},{"base_weights":[2.8415852E1,1.8551323E1,3.6444027E1,1.5707679E1,3.294445E1,3.0756859E1,4.869092E1,1.6563742E1,-4.4595757E0,2.4066467E1,5.5567314E1,4.6642403E1,2.7351688E1,4.998667E1,9.1371355E0,1.9602642E1,1.0662021E1,-1.0295917E1,1.0325737E0,4.3018833E1,6.372127E0,6.3600544E1,7.7005806E0,1.7958746E1,5.23351E1,8.172964E0,3.221944E1,2.8506948E1,5.3649128E1,3.209381E-1,1.3384766E1,3.383184E1,1.5226005E1,2.250614E0,2.6774035E1,-3.8881912E0,3.9688923E0,5.7887814E1,1.9546085E1,-1.8260635E0,4.4177017E1,4.3202026E1,-1.3270782E1,2.3697697E1,5.9323708E1,2.1963911E1,7.6668024E-1,1.490709E0,3.3718506E1,1.2543363E1,3.705878E1,2.6397179E1,5.639569E1,-3.857071E0,3.6275723E1,-8.971287E0,1.658539E1,4.7743726E0,-1.534741E1,4.69064E1,1.2017212E1,1.6274498E1,6.422252E1,2.1840017E1,5.185177E0,2.7473586E0,-2.1493431E1,9.168396E-1,-2.0823013E1,7.8136444E-1,2.9231438E1,6.765065E1,3.2470478E1,5.1392117E0,3.1030888E1,-7.0190787E0,9.429824E0,-2.0236305E1,1.1981539E1,4.373919E1,2.6966352E1,4.669767E0,1.6235838E1,7.5E0,2.8676615E1,5.751894E1,6.2945404E0],"categories":[],"categories_nodes":[],"categories_segments":[],"categories_sizes":[],"default_left":[1,1,1,1,1,1,1,1,1,1,1,1,1,1,1,1,1,0,1,1,1,0,0,1,1,1,1,1,1,0,0,1,1,1,1,0,0,1,1,1,0,0,1,1,1,1,1,1,1,1,0,1,1,0,0,0,0,0,0,0,0,0,0,0,0,0,0,0,0,0,0,0,0,0,0,0,0,0,0,0,0,0,0,0,0,0,0],"id":5,"left_children":[1,3,5,7,9,11,13,15,17,19,21,23,25,27,29,31,33,-1,35,37,39,-1,-1,41,43,45,47,49,51,-1,-1,53,55,57,59,-1,-1,61,63,65,-1,-1,67,69,71,73,75,77,79,81,-1,83,85,-1,-1,-1,-1,-1,-1,-1,-1,-1,-1,-1,-1,-1,-1,-1,-1,-1,-1,-1,-1,-1,-1,-1,-1,-1,-1,-1,-1,-1,-1,-1,-1,-1,-1],"loss_changes":[2.5616375E4,5.662789E3,1.1178766E4,2.2837188E3,3.4829805E3,5.5940625E3,2.4133594E3,1.9969688E3,2.029556E2,6.0975215E3,1.8173848E3,2.489164E3,9.725898E3,2.7187344E3,1.0804814E2,4.466959E3,5.902829E3,0E0,7.3227554E1,2.0096621E3,3.4899187E3,0E0,0E0,4.515004E3,1.9964688E3,2.332373E3,3.8652031E3,9.0033594E2,1.8795312E3,0E0,0E0,1.7978477E3,2.221079E3,1.4056692E3,3.8926611E3,0E0,0E0,2.728496E2,5.147046E1,9.585219E2,0E0,0E0,3.4053595E2,6.1122485E2,7.1021484E2,1.060919E3,1.145375E3,1.382134E3,4.3010703E3,6.954767E1,0E0,4.3375E1,1.8889844E3,0E0,0E0,0E0,0E0,0E0,0E0,0E0,0E0,0E0,0E0,0E0,0E0,0E0,0E0,0E0,0E0,0E0,0E0,0E0,0E0,0E0,0E0,0E0,0E0,0E0,0E0,0E0,0E0,0E0,0E0,0E0,0E0,0E0,0E0],"parents":[2147483647,0,0,1,1,2,2,3,3,4,4,5,5,6,6,7,7,8,8,9,9,10,10,11,11,12,12,13,13,14,14,15,15,16,16,18,18,19,19,20,20,23,23,24,24,25,25,26,26,27,27,28,28,31,31,32,32,33,33,34,34,37,37,38,38,39,39,42,42,43,43,44,44,45,45,46,46,47,47,48,48,49,49,51,51,52,52],"right_children":[2,4,6,8,10,12,14,16,18,20,22,24,26,28,30,32,34,-1,36,38,40,-1,-1,42,44,46,48,50,52,-1,-1,54,56,58,60,-1,-1,62,64,66,-1,-1,68,70,72,74,76,78,80,82,-1,84,86,-1,-1,-1,-1,-1,-1,-1,-1,-1,-1,-1,-1,-1,-1,-1,-1,-1,-1,-1,-1,-1,-1,-1,-1,-1,-1,-1,-1,-1,-1,-1,-1,-1,-1],"split_conditions":[4.4959074E-1,5.5E-1,6.439394E-1,5.3335714E-1,4.7639483E-1,2.5249004E-1,8.6600846E-1,5E-1,5E-1,1.51622E-1,7.4285716E-1,3.9999998E-1,2.746781E-1,3.2832617E-1,5.5833334E-1,3.310811E-1,6.25E-1,-3.0887752E0,2.639485E-1,4.3382353E-1,6.3725495E-1,1.9080164E1,2.3101742E0,1.3333334E-1,1.434263E-1,2.4324325E-1,2.7141434E-1,6.4166665E-1,2.916667E-1,9.628144E-2,4.01543E0,9.2857145E-2,3.581081E-1,4.5E-1,6.75E-1,-1.1664574E0,1.1906677E0,3.8333333E-1,8.5714287E-1,4.549356E-1,1.3253106E1,1.29606085E1,2.6666665E-1,5E-1,5E-1,1.3513514E-1,5.5699587E-1,4.5000002E-1,4.9242425E-1,2.8755364E-1,1.1117635E1,5E-1,9.9242425E-1,-1.1571213E0,1.0882717E1,-2.6913862E0,4.9756174E0,1.4323118E0,-4.6042233E0,1.407192E1,3.6051638E0,4.8823495E0,1.9266756E1,6.5520053E0,1.5555531E0,8.242076E-1,-6.4480295E0,2.750519E-1,-6.2469044E0,2.3440935E-1,8.769432E0,2.0295197E1,9.741144E0,1.5417635E0,9.309267E0,-2.1057236E0,2.8289473E0,-6.070892E0,3.5944617E0,1.31217575E1,8.089906E0,1.4009302E0,4.8707514E0,2.25E0,8.602984E0,1.7255682E1,1.8883622E0],"split_indices":[8,3,9,3,2,5,7,1,1,7,3,0,2,2,0,6,0,0,2,4,4,0,0,0,5,6,5,0,0,0,0,3,6,3,0,0,0,0,3,2,0,0,0,1,1,6,8,0,9,2,0,1,9,0,0,0,0,0,0,0,0,0,0,0,0,0,0,0,0,0,0,0,0,0,0,0,0,0,0,0,0,0,0,0,0,0,0],"split_type":[0,0,0,0,0,0,0,0,0,0,0,0,0,0,0,0,0,0,0,0,0,0,0,0,0,0,0,0,0,0,0,0,0,0,0,0,0,0,0,0,0,0,0,0,0,0,0,0,0,0,0,0,0,0,0,0,0,0,0,0,0,0,0,0,0,0,0,0,0,0,0,0,0,0,0,0,0,0,0,0,0,0,0,0,0,0,0],"sum_hessian":[3.31E2,1.5E2,1.81E2,1.27E2,2.3E1,1.26E2,5.5E1,1.22E2,5E0,1.8E1,5E0,2E1,1.06E2,5.3E1,2E0,7.9E1,4.3E1,2E0,3E0,8E0,1E1,4E0,1E0,4E0,1.6E1,2.2E1,8.4E1,9E0,4.4E1,1E0,1E0,1.7E1,6.2E1,2.9E1,1.4E1,1E0,2E0,4E0,4E0,9E0,1E0,2E0,2E0,4E0,1.2E1,7E0,1.5E1,4E0,8E1,4E0,5E0,5E0,3.9E1,1E0,1.6E1,3E0,5.9E1,2.6E1,3E0,5E0,9E0,1E0,3E0,3E0,1E0,8E0,1E0,1E0,1E0,1E0,3E0,8E0,4E0,3E0,4E0,8E0,7E0,1E0,3E0,3E1,5E1,2E0,2E0,1E0,4E0,3.8E1,1E0],"tree_param":{"num_deleted":"0","num_feature":"10","num_nodes":"87","size_leaf_vector":"0"}},{"base_weights":[2.0531347E1,1.8339544E1,4.198417E1,1.2874585E1,2.327337E1,9.189496E0,4.528767E1,1.1990574E1,3.5405598E1,2.0061102E1,3.1140133E1,1.399889E0,1.1319402E1,5.2856678E1,2.947305E1,6.6848416E0,1.4981832E1,-1.1759567E0,4.484498E1,2.744108E1,1.3309813E1,3.4169777E1,1.0244904E1,6.2603443E1,3.4066135E1,3.4978493E1,3.13237E0,2.4482483E-1,1.2006069E1,4.2358376E1,1.3550935E1,3.104171E1,5.9888587E0,4.6265388E0,2.5975996E1,3.5968513E1,1.1950175E0,-5.624034E-1,1.4680307E1,4.236273E1,1.5157513E1,-3.310135E0,8.00869E0,-3.7946866E0,1.3669059E1,1.5525873E1,-7.9941683E0,5.5223694E1,1.8812141E0,1.6360317E1,7.0468664E0,4.9221718E1,2.5919031E1,-1.2654528E1,2.3434473E1,4.1474907E1,1.4273262E0,3.0208248E1,3.0053375E0,1.5296074E1,3.8809357E1,2.7279663E-1,1.5197296E0,-1.5077667E0,6.641617E-1],"categories":[],"categories_nodes":[],"categories_segments":[],"categories_sizes":[],"default_left":[1,1,1,1,1,1,1,1,1,1,1,0,0,1,1,1,1,0,0,1,1,1,1,0,0,1,1,1,1,1,1,1,1,1,1,1,1,1,0,0,0,0,0,0,0,0,0,0,0,0,0,0,0,0,0,0,0,0,0,0,0,0,0,0,0],"id":6,"left_children":[1,3,5,7,9,11,13,15,17,19,21,-1,-1,23,25,27,29,-1,-1,31,33,35,37,-1,-1,39,41,43,45,47,49,51,53,55,57,59,61,63,-1,-1,-1,-1,-1,-1,-1,-1,-1,-1,-1,-1,-1,-1,-1,-1,-1,-1,-1,-1,-1,-1,-1,-1,-1,-1,-1],"loss_changes":[1.4840781E4,7.8701953E3,2.8339453E3,2.4834473E3,3.3679766E3,5.0518616E1,1.6740781E3,2.153502E3,1.779271E3,5.3645664E3,2.4353594E3,0E0,0E0,9.8084375E2,1.485623E3,1.8133069E3,2.9515781E3,0E0,0E0,3.9851367E3,6.698824E3,2.2109062E3,3.437995E2,0E0,0E0,6.7515137E2,1.2075699E2,1.4075533E3,2.1656274E3,1.9791191E3,1.4744102E3,3.0082148E3,3.22376E3,4.42046E3,2.3396543E3,1.5205469E3,4.837923E-1,4.48005E0,0E0,0E0,0E0,0E0,0E0,0E0,0E0,0E0,0E0,0E0,0E0,0E0,0E0,0E0,0E0,0E0,0E0,0E0,0E0,0E0,0E0,0E0,0E0,0E0,0E0,0E0,0E0],"parents":[2147483647,0,0,1,1,2,2,3,3,4,4,5,5,6,6,7,7,8,8,9,9,10,10,13,13,14,14,15,15,16,16,19,19,20,20,21,21,22,22,25,25,26,26,27,27,28,28,29,29,30,30,31,31,32,32,33,33,34,34,35,35,36,36,37,37],"right_children":[2,4,6,8,10,12,14,16,18,20,22,-1,-1,24,26,28,30,-1,-1,32,34,36,38,-1,-1,40,42,44,46,48,50,52,54,56,58,60,62,64,-1,-1,-1,-1,-1,-1,-1,-1,-1,-1,-1,-1,-1,-1,-1,-1,-1,-1,-1,-1,-1,-1,-1,-1,-1,-1,-1],"split_conditions":[6.3733906E-1,4.4959074E-1,4.0337935E-1,6.3235295E-1,6.287879E-1,4.0833333E-1,4.3924302E-1,2.081545E-1,3.8092858E-1,4.9242425E-1,5.9871244E-1,4.1996673E-1,3.3958206E0,6.237222E-1,5.9999996E-1,3.0714285E-1,1.5E-1,-3.5278702E-1,1.3453494E1,7.193066E-1,6.25E-1,7.686883E-1,6.7857146E-1,1.8781034E1,1.0219841E1,7.2103E-1,7.5E-1,3.1374502E-1,5.7432437E-1,3.75E-1,3.9698598E-1,2.3954183E-1,3.9999998E-1,1.25E-1,4.5945945E-1,2.3836389E-1,7.25E-1,5.416666E-1,4.4040923E0,1.2708819E1,4.547254E0,-9.930405E-1,2.402607E0,-1.138406E0,4.100718E0,4.657762E0,-2.3982506E0,1.6567108E1,5.6436425E-1,4.9080954E0,2.11406E0,1.4766516E1,7.7757096E0,-3.7963583E0,7.030342E0,1.2442472E1,4.281979E-1,9.062475E0,9.0160125E-1,4.5888224E0,1.1642807E1,8.1838995E-2,4.559189E-1,-4.5233002E-1,1.9924851E-1],"split_indices":[2,8,8,4,9,0,5,2,3,9,2,0,0,8,0,3,3,0,0,8,0,7,3,0,0,2,0,5,6,0,8,5,0,0,6,7,0,0,0,0,0,0,0,0,0,0,0,0,0,0,0,0,0,0,0,0,0,0,0,0,0,0,0,0,0],"split_type":[0,0,0,0,0,0,0,0,0,0,0,0,0,0,0,0,0,0,0,0,0,0,0,0,0,0,0,0,0,0,0,0,0,0,0,0,0,0,0,0,0,0,0,0,0,0,0,0,0,0,0,0,0,0,0,0,0,0,0,0,0,0,0,0,0],"sum_hessian":[3.31E2,3.02E2,2.9E1,1.45E2,1.57E2,3E0,2.6E1,1.41E2,4E0,1.14E2,4.3E1,1E0,2E0,1.6E1,1E1,5.2E1,8.9E1,1E0,3E0,5.3E1,6.1E1,3.7E1,6E0,9E0,7E0,8E0,2E0,2.4E1,2.8E1,3E0,8.6E1,4.5E1,8E0,3.7E1,2.4E1,3.5E1,2E0,2E0,4E0,5E0,3E0,1E0,1E0,1.9E1,5E0,2.4E1,4E0,2E0,1E0,5.9E1,2.7E1,8E0,3.7E1,4E0,4E0,2E0,3.5E1,2E1,4E0,5E0,3E1,1E0,1E0,1E0,1E0],"tree_param":{"num_deleted":"0","num_feature":"10","num_nodes":"65","size_leaf_vector":"0"}},{"base_weights":[1.4864382E1,1.3207343E1,3.1104996E1,8.375623E0,1.6507666E1,1.20593195E1,3.443176E1,2.1477415E1,6.7942157E0,5.41079E1,1.577711E1,3.527518E0,1.544334E1,9.055522E0,3.6244667E1,2.6986998E-1,3.0873007E1,7.8520527E0,-8.071402E0,1.0935708E1,2.2067186E1,4.89522E1,2.6203836E1,5.041944E0,-4.5921607E0,3.438799E1,1.3765717E0,9.716645E0,2.910352E-1,-1.7359531E1,5.55661E0,8.82112E0,2.7627197E1,3.4983093E1,1.981008E1,5.6604927E1,1.4778442E1,-2.813614E0,2.8477484E1,6.864208E0,6.987076E-1,7.3110504E0,3.721169E1,7.157851E0,2.1180492E1,-4.7446637E0,1.8361345E1,-4.948494E0,-1.9225166E1,8.917066E0,-2.2623787E0,2.0159903E1,5.9821973E0,5.9989567E0,3.4987915E1,1.4385574E1,4.6317173E1,-1.0885602E1,2.1931799E1,2.9768673E1,5.8460236E0],"categories":[],"categories_nodes":[],"categories_segments":[],"categories_sizes":[],"default_left":[1,1,1,1,1,1,1,1,1,0,1,0,0,0,1,1,1,1,1,1,1,1,1,1,0,1,0,1,1,1,1,1,1,1,1,0,0,0,1,0,0,0,0,0,0,0,0,0,0,0,0,0,0,0,0,0,0,0,0,0,0],"id":7,"left_children":[1,3,5,7,9,11,13,15,17,-1,19,-1,-1,-1,21,23,25,27,29,31,33,35,37,39,-1,41,-1,43,45,47,49,51,53,55,57,-1,-1,-1,59,-1,-1,-1,-1,-1,-1,-1,-1,-1,-1,-1,-1,-1,-1,-1,-1,-1,-1,-1,-1,-1,-1],"loss_changes":[8.52375E3,4.6934453E3,1.4855879E3,2.4439863E3,4.0633008E3,1.1875415E2,8.219082E2,2.5820151E3,1.8403472E3,0E0,5.1488203E3,0E0,0E0,0E0,1.6519316E3,1.3916325E2,8.8577734E2,1.491583E3,1.10909E3,3.3564502E3,1.522582E3,1.5171699E3,1.0697568E3,1.8947502E1,0E0,3.396006E2,0E0,2.341752E3,2.0890444E3,2.063684E1,1.2527524E2,2.840873E3,1.5413027E3,1.6682402E3,4.602291E3,0E0,0E0,0E0,2.3507129E2,0E0,0E0,0E0,0E0,0E0,0E0,0E0,0E0,0E0,0E0,0E0,0E0,0E0,0E0,0E0,0E0,0E0,0E0,0E0,0E0,0E0,0E0],"parents":[2147483647,0,0,1,1,2,2,3,3,4,4,5,5,6,6,7,7,8,8,10,10,14,14,15,15,16,16,17,17,18,18,19,19,20,20,21,21,22,22,23,23,25,25,27,27,28,28,29,29,30,30,31,31,32,32,33,33,34,34,38,38],"right_children":[2,4,6,8,10,12,14,16,18,-1,20,-1,-1,-1,22,24,26,28,30,32,34,36,38,40,-1,42,-1,44,46,48,50,52,54,56,58,-1,-1,-1,60,-1,-1,-1,-1,-1,-1,-1,-1,-1,-1,-1,-1,-1,-1,-1,-1,-1,-1,-1,-1,-1,-1],"split_conditions":[6.3733906E-1,2.725322E-1,2.5833333E-1,2.027027E-1,1.08333334E-1,5E-1,4.0337935E-1,1.0135135E-1,2.639485E-1,1.623237E1,5.1907146E-1,1.0582554E0,4.6330023E0,2.7166567E0,6.061053E-1,3.6907142E-1,6.9696975E-1,4.9285716E-1,4.1216218E-1,7.3546565E-1,2.2211155E-1,7.75E-1,6.132715E-1,6.5E-1,-1.3776482E0,2.3333335E-1,4.1297153E-1,4.1664284E-1,5.472973E-1,5.8333334E-2,2.6824033E-1,3.5606062E-1,4.5833334E-1,5.916667E-1,3.0147058E-1,1.698148E1,4.4335327E0,-8.440842E-1,8.331226E-1,2.0592625E0,2.0961228E-1,2.1933153E0,1.1163507E1,2.1473556E0,6.354148E0,-1.4233992E0,5.508404E0,-1.4845482E0,-5.76755E0,2.6751199E0,-6.787136E-1,6.0479712E0,1.7946593E0,1.799687E0,1.0496375E1,4.3156724E0,1.3895152E1,-3.2656808E0,6.57954E0,8.930602E0,1.7538072E0],"split_indices":[2,2,0,6,0,1,8,6,2,0,3,0,0,0,8,3,9,3,6,8,5,0,8,0,0,0,0,3,6,0,2,9,4,0,4,0,0,0,8,0,0,0,0,0,0,0,0,0,0,0,0,0,0,0,0,0,0,0,0,0,0],"split_type":[0,0,0,0,0,0,0,0,0,0,0,0,0,0,0,0,0,0,0,0,0,0,0,0,0,0,0,0,0,0,0,0,0,0,0,0,0,0,0,0,0,0,0,0,0,0,0,0,0,0,0,0,0,0,0,0,0,0,0,0,0],"sum_hessian":[3.31E2,3.02E2,2.9E1,1.24E2,1.78E2,5E0,2.4E1,1.2E1,1.12E2,2E0,1.76E2,2E0,3E0,2E0,2.2E1,4E0,8E0,1.05E2,7E0,1.01E2,7.5E1,8E0,1.4E1,2E0,2E0,7E0,1E0,8.4E1,2.1E1,4E0,3E0,9.1E1,1E1,9E0,6.6E1,6E0,2E0,1E0,1.3E1,1E0,1E0,1E0,6E0,7E1,1.4E1,1.7E1,4E0,1E0,3E0,2E0,1E0,1.7E1,7.4E1,3E0,7E0,4E0,5E0,4E0,6.2E1,1.2E1,1E0],"tree_param":{"num_deleted":"0","num_feature":"10","num_nodes":"61","size_leaf_vector":"0"}},{"base_weights":[1.0765159E1,9.688668E0,2.5493498E1,4.0469847E0,1.1402097E1,3.9558334E1,2.0170292E1,-1.697772E0,1.6085968E1,3.2783432E1,1.0802568E1,4.5759235E1,7.377369E0,2.5886541E1,7.489539E0,1.1063203E1,-6.354506E0,2.5932425E1,5.759549E0,4.270607E0,4.5972195E1,4.8657336E0,1.2833461E1,1.4127866E1,3.2267326E1,9.605734E0,1.4660339E0,2.9999384E1,5.407224E0,-8.455523E0,1.3618013E1,3.5865322E1,4.853305E0,-7.826334E0,1.0617948E1,7.913643E0,-1.5077324E0,2.90248E1,-1.0297569E0,6.1406302E0,1.5209284E1,5.5221963E0,1.7050152E1,-2.391571E0,4.590622E0,1.0408078E1,-1.3283094E0,-8.352822E-1,-1.29204235E1,1.5342865E0,1.7134493E1,3.9734913E1,4.3890915E0,-9.528755E0,1.7617598E1,-1.2718036E1,3.424385E0,6.1929297E0,1.5707241E1,3.8366108E1,7.506561E-1,-8.463704E0,1.0544349E1,4.120325E0,3.439833E1,1.637487E1,-1.892273E0],"categories":[],"categories_nodes":[],"categories_segments":[],"categories_sizes":[],"default_left":[1,1,1,1,1,1,1,1,1,1,1,0,0,1,1,1,1,1,1,1,0,1,1,1,0,0,1,0,1,1,1,1,1,1,1,0,0,1,1,1,1,0,0,0,0,0,0,0,0,0,0,0,0,0,0,0,0,0,0,0,0,0,0,0,0,0,0],"id":8,"left_children":[1,3,5,7,9,11,13,15,17,19,21,-1,-1,23,25,27,29,31,33,35,-1,37,39,41,-1,-1,43,-1,45,47,49,51,53,55,57,-1,-1,59,61,63,65,-1,-1,-1,-1,-1,-1,-1,-1,-1,-1,-1,-1,-1,-1,-1,-1,-1,-1,-1,-1,-1,-1,-1,-1,-1,-1],"loss_changes":[5.016836E3,2.9601758E3,8.492383E2,5.1452266E3,2.696707E3,6.6017285E2,1.110876E3,3.100949E3,2.2909292E3,2.0599634E3,2.7468535E3,0E0,0E0,4.4448584E2,7.514603E1,1.3372235E3,1.709726E3,2.3384546E3,9.411728E2,7.5083755E1,0E0,8.718091E3,2.6574746E3,5.6735107E1,0E0,0E0,4.713908E1,0E0,4.180262E2,1.1800347E3,1.4367957E2,8E2,1.0857578E3,2.6369208E2,1.27928345E2,0E0,0E0,3.1406094E3,4.391308E3,2.541459E3,2.5625195E3,0E0,0E0,0E0,0E0,0E0,0E0,0E0,0E0,0E0,0E0,0E0,0E0,0E0,0E0,0E0,0E0,0E0,0E0,0E0,0E0,0E0,0E0,0E0,0E0,0E0,0E0],"parents":[2147483647,0,0,1,1,2,2,3,3,4,4,5,5,6,6,7,7,8,8,9,9,10,10,13,13,14,14,15,15,16,16,17,17,18,18,19,19,21,21,22,22,23,23,26,26,28,28,29,29,30,30,31,31,32,32,33,33,34,34,37,37,38,38,39,39,40,40],"right_children":[2,4,6,8,10,12,14,16,18,20,22,-1,-1,24,26,28,30,32,34,36,-1,38,40,42,-1,-1,44,-1,46,48,50,52,54,56,58,-1,-1,60,62,64,66,-1,-1,-1,-1,-1,-1,-1,-1,-1,-1,-1,-1,-1,-1,-1,-1,-1,-1,-1,-1,-1,-1,-1,-1,-1,-1],"split_conditions":[6.609442E-1,3.453824E-1,3.595E-1,4.7727275E-1,1.08333334E-1,5.083333E-1,4.3924302E-1,2.348485E-1,3.3578432E-1,2.7857143E-1,4.0833333E-1,1.3727771E1,2.2132108E0,5E-1,5E-1,1.680718E-1,4.6781117E-1,5.833333E-1,2.274678E-1,3.3333335E-2,1.3791659E1,3.5606062E-1,3.8335717E-1,2.5E-1,9.680199E0,2.8817203E0,7.5E-1,8.999816E0,3.333333E-1,1.7381975E-1,3.8333333E-1,4.391892E-1,5.25E-1,6.5E-1,5E-1,2.374093E0,-4.5231974E-1,5E-1,4.1184765E-1,6.969697E-1,8.5E-1,1.656659E0,5.1150455E0,-7.1747136E-1,1.3771867E0,3.1224236E0,-3.9849284E-1,-2.5058466E-1,-3.8761272E0,4.6028596E-1,5.140348E0,1.1920474E1,1.3167275E0,-2.8586266E0,5.2852793E0,-3.8154109E0,1.0273156E0,1.857879E0,4.7121725E0,1.1509832E1,2.2519685E-1,-2.5391114E0,3.1633048E0,1.2360976E0,1.03195E1,4.9124613E0,-5.676819E-1],"split_indices":[2,8,3,9,0,0,5,9,4,3,0,0,0,1,0,8,2,9,2,0,0,9,3,6,0,0,0,0,4,2,0,6,0,0,4,0,0,6,7,9,0,0,0,0,0,0,0,0,0,0,0,0,0,0,0,0,0,0,0,0,0,0,0,0,0,0,0],"split_type":[0,0,0,0,0,0,0,0,0,0,0,0,0,0,0,0,0,0,0,0,0,0,0,0,0,0,0,0,0,0,0,0,0,0,0,0,0,0,0,0,0,0,0,0,0,0,0,0,0,0,0,0,0,0,0,0,0,0,0,0,0,0,0,0,0,0,0],"sum_hessian":[3.31E2,3.1E2,2.1E1,7.3E1,2.37E2,4E0,1.7E1,5E1,2.3E1,5E0,2.32E2,3E0,1E0,1.1E1,6E0,1.3E1,3.7E1,1.1E1,1.2E1,2E0,3E0,6E1,1.72E2,5E0,6E0,4E0,2E0,2E0,1.1E1,3.4E1,3E0,7E0,4E0,3E0,9E0,1E0,1E0,1.1E1,4.9E1,4.6E1,1.26E2,2E0,3E0,1E0,1E0,6E0,5E0,1.3E1,2.1E1,1E0,2E0,6E0,1E0,2E0,2E0,2E0,1E0,6E0,3E0,8E0,3E0,3E1,1.9E1,4.4E1,2E0,1.18E2,8E0],"tree_param":{"num_deleted":"0","num_feature":"10","num_nodes":"67","size_leaf_vector":"0"}},{"base_weights":[7.8746195E0,7.028423E0,1.9478823E1,6.0659575E0,1.4952648E1,3.0879026E1,1.5229943E1,6.591626E0,-1.5301694E1,1.813129E1,4.461682E0,3.54634E1,6.2707634E0,1.9491568E1,5.748597E0,6.1946273E0,2.6631855E1,-1.8916321E-1,-1.7788921E1,2.4799885E1,8.840322E0,-4.922953E0,7.8462853E0,5.2926636E0,2.1802082E1,2.0002842E0,8.059761E0,-3.828641E0,6.8436427E0,3.3759613E0,3.1601837E1,-5.965721E0,-2.2209091E1,1.5228729E0,3.1009718E1,3.9531556E-1,1.3013411E1,-6.431076E0,-9.533539E-1,1.4809774E0,1.0096212E1,2.330436E1,4.140785E0,-2.032837E0,4.02227E0,1.1274112E0,-1.1069774E1,9.664856E0,3.9233334E0,-6.7331047E0,6.5192337E0,5.3320312E0,3.3044285E1,-6.1316605E0,3.5599747E0,1.5362228E1,-1.7141571E0,1.0836666E1,2.7732096E1],"categories":[],"categories_nodes":[],"categories_segments":[],"categories_sizes":[],"default_left":[1,1,1,1,1,1,1,1,1,1,1,0,0,1,1,1,1,0,1,1,1,1,1,0,1,1,0,1,1,0,0,0,0,1,1,1,1,0,0,0,0,1,0,0,0,0,0,0,0,0,0,0,0,0,0,0,0,0,0],"id":9,"left_children":[1,3,5,7,9,11,13,15,17,19,21,-1,-1,23,25,27,29,-1,31,33,35,37,39,-1,41,43,-1,45,47,-1,-1,-1,-1,49,51,53,55,-1,-1,-1,-1,57,-1,-1,-1,-1,-1,-1,-1,-1,-1,-1,-1,-1,-1,-1,-1,-1,-1],"loss_changes":[3.1231465E3,2.2812295E3,5.9535254E2,3.2346777E3,1.0195552E3,3.4168506E2,6.152578E2,2.007001E3,2.5975305E2,1.3297041E3,3.2449628E2,0E0,0E0,2.7829053E2,4.4518936E1,1.7761152E3,4.7122046E2,0E0,1.8107007E2,1.9764248E3,4.1775677E2,1.1828835E1,8.529813E1,0E0,1.6882324E2,4.079628E1,0E0,6.225666E2,2.0465029E3,0E0,0E0,0E0,0E0,2.0889406E2,3.984795E2,1.2510683E2,3.0307227E2,0E0,0E0,0E0,0E0,1.9630957E2,0E0,0E0,0E0,0E0,0E0,0E0,0E0,0E0,0E0,0E0,0E0,0E0,0E0,0E0,0E0,0E0,0E0],"parents":[2147483647,0,0,1,1,2,2,3,3,4,4,5,5,6,6,7,7,8,8,9,9,10,10,13,13,14,14,15,15,16,16,18,18,19,19,20,20,21,21,22,22,24,24,25,25,27,27,28,28,33,33,34,34,35,35,36,36,41,41],"right_children":[2,4,6,8,10,12,14,16,18,20,22,-1,-1,24,26,28,30,-1,32,34,36,38,40,-1,42,44,-1,46,48,-1,-1,-1,-1,50,52,54,56,-1,-1,-1,-1,58,-1,-1,-1,-1,-1,-1,-1,-1,-1,-1,-1,-1,-1,-1,-1,-1,-1],"split_conditions":[6.609442E-1,7.3130286E-1,3.595E-1,7.184459E-1,5.9871244E-1,5.083333E-1,4.3924302E-1,7.041662E-1,3.4313726E-1,6.666666E-1,5E-1,1.0639021E1,1.881229E0,1.2837838E-1,6.2679595E-1,9.656653E-2,2.1888411E-1,-5.6748964E-2,3.0833334E-1,3.25E-1,5.7575756E-1,5.75E-1,4.25E-1,1.5877992E0,8.044227E-1,6.974249E-1,2.4179285E0,7.725322E-2,5E-1,1.0127884E0,9.480552E0,-1.7897164E0,-6.662728E0,2E-1,2.8807142E-1,7.083334E-1,8.833333E-1,-1.9293228E0,-2.8600618E-1,4.4429323E-1,3.028864E0,4.0833333E-1,1.2422357E0,-6.098511E-1,1.2066811E0,3.382234E-1,-3.3209321E0,2.899457E0,1.177E0,-2.0199316E0,1.9557701E0,1.5996095E0,9.913286E0,-1.8394982E0,1.0679924E0,4.608669E0,-5.142472E-1,3.251E0,8.319629E0],"split_indices":[2,8,3,8,2,0,5,8,4,0,1,0,0,6,8,2,2,0,0,0,9,0,0,0,8,2,0,2,1,0,0,0,0,0,3,0,0,0,0,0,0,0,0,0,0,0,0,0,0,0,0,0,0,0,0,0,0,0,0],"split_type":[0,0,0,0,0,0,0,0,0,0,0,0,0,0,0,0,0,0,0,0,0,0,0,0,0,0,0,0,0,0,0,0,0,0,0,0,0,0,0,0,0,0,0,0,0,0,0,0,0,0,0,0,0,0,0,0,0,0,0],"sum_hessian":[3.31E2,3.1E2,2.1E1,2.78E2,3.2E1,4E0,1.7E1,2.72E2,6E0,2.4E1,8E0,3E0,1E0,1.1E1,6E0,2.68E2,4E0,1E0,5E0,1.3E1,1.1E1,2E0,6E0,2E0,9E0,3E0,3E0,1.6E1,2.52E2,1E0,3E0,2E0,3E0,3E0,1E1,4E0,7E0,1E0,1E0,2E0,4E0,8E0,1E0,1E0,2E0,1E1,6E0,1.27E2,1.25E2,1E0,2E0,1E0,9E0,1E0,3E0,6E0,1E0,3E0,5E0],"tree_param":{"num_deleted":"0","num_feature":"10","num_nodes":"59","size_leaf_vector":"0"}},{"base_weights":[5.6599517E0,4.839241E0,1.3760467E1,4.1462255E0,1.1769837E1,2.366339E1,1.0833346E1,8.811593E0,2.8431597E0,-4.7813755E-1,1.6952044E1,7.7768097E0,2.9662476E1,2.9050523E-1,1.2827673E1,1.286525E1,2.195057E0,-1.7996942E0,4.420808E0,-7.010541E0,6.1498933E0,5.044398E0,2.205985E1,-1.7178898E0,1.2220764E0,6.075588E0,1.4557976E1,-7.701874E-2,1.7661535E1,-3.0569824E1,6.56322E0,-4.3782563E0,7.0661855E0,3.5204678E0,5.126546E1,-8.236359E0,-1.0536346E0,-1.9337845E0,8.654259E0,1.8104782E1,-3.8007126E0,5.038414E-1,2.8476269E1,1.6919556E0,5.0146484E-1,1.5280418E0,6.679489E0,1.6644218E1,8.3068695E0,1.5371028E1,-5.2178097E0,1.0006904E1,2.7885826E1,1.9621717E1,4.3992615E-1,7.27022E0,-8.018109E0,1.4259691E1,-7.2953615E0,1.5547393E1,2.4475114E0,1.1847839E0,-7.5193048E0,1.527359E1,-9.510605E0,3.0930664E1,1.2439128E1,9.520259E0,2.099414E1,1.3625295E1,2.241333E0],"categories":[],"categories_nodes":[],"categories_segments":[],"categories_sizes":[],"default_left":[1,1,1,1,1,1,1,1,1,1,1,0,0,1,1,1,1,1,1,1,1,1,1,0,1,1,1,1,1,0,1,1,1,1,0,0,0,0,0,0,1,1,1,0,0,0,0,1,1,0,0,0,0,0,0,0,0,0,0,0,0,0,0,0,0,0,0,0,0,0,0],"id":10,"left_children":[1,3,5,7,9,11,13,15,17,19,21,-1,-1,23,25,27,29,31,33,35,37,39,41,-1,43,45,47,49,51,-1,53,55,57,59,-1,-1,-1,-1,-1,-1,61,63,65,-1,-1,-1,-1,67,69,-1,-1,-1,-1,-1,-1,-1,-1,-1,-1,-1,-1,-1,-1,-1,-1,-1,-1,-1,-1,-1,-1],"loss_changes":[2.1406055E3,1.4065122E3,6.132573E2,1.6589082E3,1.7218372E3,3.4115063E2,5.219204E2,1.5810298E3,1.6047604E3,4.327868E2,1.0443384E3,0E0,0E0,1.1454207E1,1.568977E2,2.298129E3,3.6355725E3,1.3111661E3,6.6942295E3,2.7832306E1,1.17957886E2,8.774548E2,1.7837134E3,0E0,5.059447E-1,6.2710724E0,7.039966E1,9.537701E2,1.8340547E3,0E0,1.7505103E3,1.9238375E3,1.447058E3,2.0395503E3,0E0,0E0,0E0,0E0,0E0,0E0,1.016039E2,7.369045E2,8.864746E0,0E0,0E0,0E0,0E0,1.4100586E2,1.6301578E2,0E0,0E0,0E0,0E0,0E0,0E0,0E0,0E0,0E0,0E0,0E0,0E0,0E0,0E0,0E0,0E0,0E0,0E0,0E0,0E0,0E0,0E0],"parents":[2147483647,0,0,1,1,2,2,3,3,4,4,5,5,6,6,7,7,8,8,9,9,10,10,13,13,14,14,15,15,16,16,17,17,18,18,19,19,20,20,21,21,22,22,24,24,25,25,26,26,27,27,28,28,30,30,31,31,32,32,33,33,40,40,41,41,42,42,47,47,48,48],"right_children":[2,4,6,8,10,12,14,16,18,20,22,-1,-1,24,26,28,30,32,34,36,38,40,42,-1,44,46,48,50,52,-1,54,56,58,60,-1,-1,-1,-1,-1,-1,62,64,66,-1,-1,-1,-1,68,70,-1,-1,-1,-1,-1,-1,-1,-1,-1,-1,-1,-1,-1,-1,-1,-1,-1,-1,-1,-1,-1,-1],"split_conditions":[6.3733906E-1,7.119286E-1,3.72549E-1,1.9594595E-1,3.0042917E-1,4.318182E-1,4.2647058E-1,5.833333E-1,2.9054055E-1,5.984849E-1,4.0833333E-1,2.333043E0,8.898743E0,4.0833333E-1,3E-1,3.333333E-1,5.984849E-1,6.304493E-1,6.812749E-1,7E-1,5.083333E-1,1.6216215E-1,1.9594595E-1,-5.15367E-1,5E-1,5E-1,4.9365303E-1,5E-1,5.6800854E-1,-9.170948E0,4.2156863E-1,2.7857143E-1,7.794118E-1,9.166667E-2,1.5379639E1,-2.4709077E0,-3.160904E-1,-5.8013535E-1,2.5962777E0,5.4314346E0,3.8333333E-1,7.285714E-1,7.1212125E-1,5.075867E-1,1.5043946E-1,4.5841256E-1,2.003847E0,3.9774328E-1,4.4166666E-1,4.6113086E0,-1.565343E0,3.0020711E0,8.365748E0,5.8865156E0,1.3197786E-1,2.181066E0,-2.405433E0,4.2779074E0,-2.1886086E0,4.664218E0,7.3425347E-1,3.554352E-1,-2.2557914E0,4.582077E0,-2.8531816E0,9.2792E0,3.7317386E0,2.8560777E0,6.2982426E0,4.087589E0,6.7239994E-1],"split_indices":[2,3,4,6,2,9,4,9,6,9,0,0,0,0,0,0,9,8,5,0,0,6,6,0,1,1,7,1,8,0,4,3,4,0,0,0,0,0,0,0,0,3,9,0,0,0,0,7,0,0,0,0,0,0,0,0,0,0,0,0,0,0,0,0,0,0,0,0,0,0,0],"split_type":[0,0,0,0,0,0,0,0,0,0,0,0,0,0,0,0,0,0,0,0,0,0,0,0,0,0,0,0,0,0,0,0,0,0,0,0,0,0,0,0,0,0,0,0,0,0,0,0,0,0,0,0,0,0,0,0,0,0,0,0,0,0,0,0,0,0,0,0,0,0,0],"sum_hessian":[3.31E2,3.02E2,2.9E1,2.76E2,2.6E1,5E0,2.4E1,5.9E1,2.17E2,8E0,1.8E1,2E0,3E0,4E0,2E1,3.6E1,2.3E1,5.5E1,1.62E2,4E0,4E0,6E0,1.2E1,1E0,3E0,5E0,1.5E1,1E1,2.6E1,2E0,2.1E1,4.3E1,1.2E1,1.6E2,2E0,3E0,1E0,1E0,3E0,2E0,4E0,3E0,9E0,1E0,2E0,1E0,4E0,1E1,5E0,2E0,8E0,1.6E1,1E1,6E0,1.5E1,1E1,3.3E1,8E0,4E0,1.2E1,1.48E2,2E0,2E0,1E0,2E0,7E0,2E0,5E0,5E0,2E0,3E0],"tree_param":{"num_deleted":"0","num_feature":"10","num_nodes":"71","size_leaf_vector":"0"}},{"base_weights":[4.200386E0,5.4676847E0,3.326144E-1,4.0182123E0,8.612441E0,-1.3857964E0,2.7416983E1,4.7039347E0,-1.2915196E1,5.722444E0,2.4030554E1,4.8010835E-1,-1.0895783E1,6.8767014E0,3.0832878E1,7.665085E0,1.8929337E0,2.4038181E0,-2.5005411E1,1.5180396E1,3.5935535E0,3.4306866E1,8.036433E0,-1.5603657E0,9.962312E0,-1.4462593E1,5.814448E0,2.8466038E1,5.6214614E0,-1.2696387E0,1.0748337E1,4.468206E0,-1.8946724E0,-7.397167E0,-2.8409103E1,4.5359497E0,1.9935625E1,-5.7401836E-1,8.091094E0,1.8123856E0,4.6942177E1,1.0051285E1,-1.0189133E0,-4.5942955E0,3.3372662E0,-4.5793724E0,1.5318358E1,-2.1813316E0,-1.5472586E1,-9.075699E-1,9.629242E0,1.4651093E1,4.200227E1,1.0484456E1,-2.0225127E0,-3.7373416E0,1.2676461E1,1.7558603E1,3.0423763E0,-4.343666E0,7.84177E0,5.6278763E0,2.3766895E1,7.2436457E0,-4.269381E0,2.5659111E1,2.9320402E0,2.7751007E0,-5.652237E-2,1.4296107E1,-6.1723833E0,1.3384022E1,-6.1503654E0,-1.0376363E1,6.4058E0,1.9015808E1,8.557238E0],"categories":[],"categories_nodes":[],"categories_segments":[],"categories_sizes":[],"default_left":[1,1,1,1,1,1,1,1,1,1,1,1,1,0,0,1,1,1,1,1,1,1,1,1,1,1,1,1,1,1,1,0,0,0,0,1,1,1,1,1,0,0,0,1,1,1,1,0,0,0,0,0,0,0,0,0,0,0,0,0,0,0,0,0,0,0,0,0,0,0,0,0,0,0,0,0,0],"id":11,"left_children":[1,3,5,7,9,11,13,15,17,19,21,23,25,-1,-1,27,29,31,33,35,37,39,41,43,45,47,49,51,53,55,57,-1,-1,-1,-1,59,61,63,65,67,-1,-1,-1,69,71,73,75,-1,-1,-1,-1,-1,-1,-1,-1,-1,-1,-1,-1,-1,-1,-1,-1,-1,-1,-1,-1,-1,-1,-1,-1,-1,-1,-1,-1,-1,-1],"loss_changes":[1.6255195E3,1.1049531E3,3.9009863E3,2.0695618E3,3.3380332E3,1.4070648E3,1.3878906E2,1.3755645E3,1.3565796E3,1.2944895E3,1.6966226E3,1.3118735E3,8.5892065E2,0E0,0E0,3.283234E3,2.4501558E3,4.3960793E1,2.958545E1,5.1697437E2,1.0542986E3,2.7889688E3,1.19712494E2,8.474403E2,1.00477966E3,1.02693115E2,8.566854E1,6.936367E2,2.809151E3,2.2843403E3,1.1536118E3,0E0,0E0,0E0,0E0,1.8083412E2,3.047776E2,8.97599E2,2.371894E3,5.554533E0,0E0,0E0,0E0,1.1316165E3,2.1793547E3,3.211927E2,6.226758E1,0E0,0E0,0E0,0E0,0E0,0E0,0E0,0E0,0E0,0E0,0E0,0E0,0E0,0E0,0E0,0E0,0E0,0E0,0E0,0E0,0E0,0E0,0E0,0E0,0E0,0E0,0E0,0E0,0E0,0E0],"parents":[2147483647,0,0,1,1,2,2,3,3,4,4,5,5,6,6,7,7,8,8,9,9,10,10,11,11,12,12,15,15,16,16,17,17,18,18,19,19,20,20,21,21,22,22,23,23,24,24,25,25,26,26,27,27,28,28,29,29,30,30,35,35,36,36,37,37,38,38,39,39,43,43,44,44,45,45,46,46],"right_children":[2,4,6,8,10,12,14,16,18,20,22,24,26,-1,-1,28,30,32,34,36,38,40,42,44,46,48,50,52,54,56,58,-1,-1,-1,-1,60,62,64,66,68,-1,-1,-1,70,72,74,76,-1,-1,-1,-1,-1,-1,-1,-1,-1,-1,-1,-1,-1,-1,-1,-1,-1,-1,-1,-1,-1,-1,-1,-1,-1,-1,-1,-1,-1,-1],"split_conditions":[4.527027E-1,6.25E-1,4.3562233E-1,6.0833335E-1,3.581081E-1,3.60515E-1,5.539216E-1,5E-1,5.054781E-1,6.583333E-1,4.857143E-1,5.681818E-1,4.1201717E-1,2.0630105E0,9.249864E0,1.6891891E-1,6.0714287E-1,5E-1,4.1428572E-1,1.3513514E-1,5.5E-1,2.4678111E-1,8.5E-1,2.3819742E-1,5.25E-1,2.2142857E-1,4.666667E-1,1.4864865E-1,4.4849783E-1,6.7424244E-1,5.4077256E-1,1.3404619E0,-5.6840175E-1,-2.2191503E0,-8.522732E0,3.602941E-1,3.025751E-1,2.9828328E-1,6.214286E-1,7.416667E-1,1.4082654E1,3.0153856E0,-3.05674E-1,1.9852942E-1,2.8969955E-1,2.7682403E-1,5.54054E-1,-6.543995E-1,-4.641776E0,-2.7227098E-1,2.8887727E0,4.395328E0,1.2600681E1,3.1453369E0,-6.067538E-1,-1.1212026E0,3.8029385E0,5.267581E0,9.1271293E-1,-1.3030999E0,2.3525312E0,1.688363E0,7.130069E0,2.1730938E0,-1.2808144E0,7.6977334E0,8.796121E-1,8.3253026E-1,-1.6956711E-2,4.288832E0,-1.8517151E0,4.015207E0,-1.8451097E0,-3.112909E0,1.92174E0,5.7047424E0,2.5671713E0],"split_indices":[6,0,2,0,6,2,4,1,5,0,3,9,2,0,0,6,3,1,3,6,3,2,0,2,0,3,0,6,2,9,2,0,0,0,0,4,2,2,3,0,0,0,0,4,2,2,6,0,0,0,0,0,0,0,0,0,0,0,0,0,0,0,0,0,0,0,0,0,0,0,0,0,0,0,0,0,0],"split_type":[0,0,0,0,0,0,0,0,0,0,0,0,0,0,0,0,0,0,0,0,0,0,0,0,0,0,0,0,0,0,0,0,0,0,0,0,0,0,0,0,0,0,0,0,0,0,0,0,0,0,0,0,0,0,0,0,0,0,0,0,0,0,0,0,0,0,0,0,0,0,0,0,0,0,0,0,0],"sum_hessian":[3.31E2,2.49E2,8.2E1,1.72E2,7.7E1,7.8E1,4E0,1.66E2,6E0,6.6E1,1.1E1,6.6E1,1.2E1,1E0,3E0,8E1,8.6E1,3E0,3E0,1.1E1,5.5E1,6E0,5E0,5.5E1,1.1E1,1E1,2E0,6E0,7.4E1,6.4E1,2.2E1,2E0,1E0,1E0,2E0,4E0,7E0,2.9E1,2.6E1,2E0,4E0,4E0,1E0,3.4E1,2.1E1,3E0,8E0,1E0,9E0,1E0,1E0,4E0,2E0,4.5E1,2.9E1,5.5E1,9E0,1.1E1,1.1E1,1E0,3E0,2E0,5E0,9E0,2E1,5E0,2.1E1,1E0,1E0,2E0,3.2E1,1E1,1.1E1,2E0,1E0,4E0,4E0],"tree_param":{"num_deleted":"0","num_feature":"10","num_nodes":"77","size_leaf_vector":"0"}},{"base_weights":[3.168261E0,7.785528E-1,4.589152E0,4.5811552E-1,2.0256386E1,2.6227682E1,4.25175E0,2.1625862E0,-4.117324E0,1.0784314E1,3.5689285E0,1.003224E0,1.4065565E1,-7.1426916E0,2.8577805E0,1.5863044E1,-2.8634403E0,-1.727619E1,4.115976E0,4.907321E0,-2.3285806E0,-1.9833006E0,1.9745737E1,-8.428314E0,1.1213318E1,9.665626E0,-4.426361E0,8.012543E0,2.0749352E1,-6.5213394E0,7.713028E0,-1.974918E1,-3.6921158E0,2.1747131E1,3.7035966E0,-5.081166E-1,2.5955658E1,-1.0102363E1,1.3881481E0,-6.325054E0,3.3501034E0,-9.950422E0,-9.586426E-1,2.3295832E1,-2.9734364E0,-7.2014785E0,4.724613E0,2.2026567E1,5.904419E0,-1.603569E0,-7.3498898E0,3.2835037E1,7.10615E0,-1.9231617E0,5.113848E0],"categories":[],"categories_nodes":[],"categories_segments":[],"categories_sizes":[],"default_left":[1,1,1,1,0,0,1,1,1,1,1,1,1,1,1,1,1,1,1,1,1,1,0,1,0,1,1,0,1,1,0,0,0,1,1,0,0,0,0,0,0,0,0,0,0,0,0,0,0,0,0,0,0,0,0],"id":12,"left_children":[1,3,5,7,-1,-1,9,11,13,15,17,19,21,23,25,27,29,31,33,35,37,39,-1,41,-1,43,45,-1,47,49,-1,-1,-1,51,53,-1,-1,-1,-1,-1,-1,-1,-1,-1,-1,-1,-1,-1,-1,-1,-1,-1,-1,-1,-1],"loss_changes":[1.1237378E3,7.7089813E2,1.4070688E3,9.759432E2,0E0,0E0,8.803904E2,1.2416764E3,7.378889E2,1.3623748E3,2.2149211E3,1.1040729E3,7.684442E2,6.608832E2,5.8826587E2,3.7078442E2,2.8242517E2,9.505005E1,1.2572695E3,4.4586406E3,1.3431034E3,9.0658554E1,0E0,2.5196289E2,0E0,1.1029067E3,1.8639438E2,0E0,2.1627441E1,8.587051E0,0E0,0E0,0E0,4.1602063E2,1.4460957E3,0E0,0E0,0E0,0E0,0E0,0E0,0E0,0E0,0E0,0E0,0E0,0E0,0E0,0E0,0E0,0E0,0E0,0E0,0E0,0E0],"parents":[2147483647,0,0,1,1,2,2,3,3,6,6,7,7,8,8,9,9,10,10,11,11,12,12,13,13,14,14,15,15,16,16,17,17,18,18,19,19,20,20,21,21,23,23,25,25,26,26,28,28,29,29,33,33,34,34],"right_children":[2,4,6,8,-1,-1,10,12,14,16,18,20,22,24,26,28,30,32,34,36,38,40,-1,42,-1,44,46,-1,48,50,-1,-1,-1,52,54,-1,-1,-1,-1,-1,-1,-1,-1,-1,-1,-1,-1,-1,-1,-1,-1,-1,-1,-1,-1],"split_conditions":[2.725322E-1,7.026893E-1,1.08333334E-1,4.4764286E-1,6.076916E0,7.8683047E0,2.1762949E-1,4.1664284E-1,2.3819742E-1,6.060606E-1,2.3007968E-1,3.3578432E-1,2.4412477E-1,9.932432E-1,5.3571427E-1,1.6932271E-1,7.583333E-1,6E-1,2.4352589E-1,2.50996E-1,4.166667E-1,2.1888411E-1,5.9237213E0,6.737857E-1,3.3639956E0,4.2424244E-1,7.6666665E-1,2.4037628E0,7.4285716E-1,1.2162162E-1,2.3139086E0,-5.924754E0,-1.1076348E0,4.583333E-1,2.2708039E-1,-1.5243499E-1,7.786698E0,-3.030709E0,4.1644445E-1,-1.8975164E0,1.0050311E0,-2.9851267E0,-2.875928E-1,6.98875E0,-8.9203095E-1,-2.1604435E0,1.417384E0,6.6079707E0,1.7713257E0,-4.8107073E-1,-2.204967E0,9.850512E0,2.1318452E0,-5.769485E-1,1.5341545E0],"split_indices":[2,5,0,3,0,0,5,3,2,9,5,4,8,6,3,5,0,0,5,5,4,2,0,3,0,9,0,0,3,6,0,0,0,0,7,0,0,0,0,0,0,0,0,0,0,0,0,0,0,0,0,0,0,0,0],"split_type":[0,0,0,0,0,0,0,0,0,0,0,0,0,0,0,0,0,0,0,0,0,0,0,0,0,0,0,0,0,0,0,0,0,0,0,0,0,0,0,0,0,0,0,0,0,0,0,0,0,0,0,0,0,0,0],"sum_hessian":[3.31E2,1.24E2,2.07E2,1.23E2,1E0,2E0,2.05E2,9E1,3.3E1,1.8E1,1.87E2,8.3E1,7E0,2.3E1,1E1,1.3E1,5E0,4E0,1.83E2,3.8E1,4.5E1,2E0,5E0,2.2E1,1E0,5E0,5E0,6E0,7E0,4E0,1E0,3E0,1E0,3E0,1.8E2,3.1E1,7E0,1.4E1,3.1E1,1E0,1E0,1.8E1,4E0,2E0,3E0,4E0,1E0,6E0,1E0,1E0,3E0,1E0,2E0,3.6E1,1.44E2],"tree_param":{"num_deleted":"0","num_feature":"10","num_nodes":"55","size_leaf_vector":"0"}},{"base_weights":[2.3556144E0,-4.929241E0,2.7400668E0,8.770546E0,-6.333637E0,2.5978272E0,2.3772781E1,-8.223154E0,1.3907032E0,2.0645094E0,7.59553E0,-3.5573409E0,-1.4976988E1,-1.4268646E0,4.9217033E0,1.15906515E1,1.7486827E0,1.4131989E1,5.7229586E0,1.9991392E0,-1.1002726E1,-1.7068405E0,-4.3345642E-1,-3.075306E0,3.0691925E1,1.5682675E0,1.7763998E1,1.6217968E1,1.8510437E0,-1.2808411E0,7.118008E0,4.7969475E0,-2.3976517E0,-3.4369278E-1,-5.6923547E0,5.9763775E0,1.0464792E0,2.442613E0,8.825326E0],"categories":[],"categories_nodes":[],"categories_segments":[],"categories_sizes":[],"default_left":[1,1,1,0,1,1,0,1,1,1,1,1,0,1,0,1,1,1,1,1,0,0,0,1,0,1,0,0,0,0,1,0,0,0,0,0,0,0,0],"id":13,"left_children":[1,3,5,-1,7,9,-1,11,13,15,17,19,-1,21,-1,23,25,27,29,31,-1,-1,-1,33,-1,35,-1,-1,-1,-1,37,-1,-1,-1,-1,-1,-1,-1,-1],"loss_changes":[9.4333215E2,3.8262817E2,8.836155E2,0E0,2.4496033E2,8.2390845E2,0E0,3.5637952E2,4.6817932E1,8.401937E2,2.8632275E2,3.9432715E2,0E0,9.455013E-2,0E0,2.6156333E3,7.753967E2,1.2368677E2,2.533833E2,8.530968E1,0E0,0E0,0E0,4.0936165E1,0E0,6.285734E2,0E0,0E0,0E0,0E0,1.4607312E2,0E0,0E0,0E0,0E0,0E0,0E0,0E0,0E0],"parents":[2147483647,0,0,1,1,2,2,4,4,5,5,7,7,8,8,9,9,10,10,11,11,13,13,15,15,16,16,17,17,18,18,19,19,23,23,25,25,30,30],"right_children":[2,4,6,-1,8,10,-1,12,14,16,18,20,-1,22,-1,24,26,28,30,32,-1,-1,-1,34,-1,36,-1,-1,-1,-1,38,-1,-1,-1,-1,-1,-1,-1,-1],"split_conditions":[9.656653E-2,1.6666668E-2,9.857143E-1,2.6311638E0,1.4456981E-1,6.3733906E-1,7.1318345E0,7.725322E-2,6.166667E-1,9.166667E-2,3.72549E-1,2.7857143E-1,-4.4930964E0,2.75E-1,1.476511E0,3.4848487E-1,9.666667E-1,6.833333E-1,4.2647058E-1,2.5833333E-1,-3.3008177E0,-5.120522E-1,-1.3003694E-1,4.1666668E-2,9.207578E0,1.7381975E-1,5.3292E0,4.865391E0,5.553131E-1,-3.8425234E-1,3.4166667E-1,1.4390843E0,-7.192955E-1,-1.0310784E-1,-1.7077065E0,1.7929133E0,3.1394377E-1,7.327839E-1,2.6475978E0],"split_indices":[2,0,3,0,7,2,0,2,0,0,4,3,0,0,0,9,0,0,4,0,0,0,0,0,0,2,0,0,0,0,0,0,0,0,0,0,0,0,0],"split_type":[0,0,0,0,0,0,0,0,0,0,0,0,0,0,0,0,0,0,0,0,0,0,0,0,0,0,0,0,0,0,0,0,0,0,0,0,0,0,0],"sum_hessian":[3.31E2,1.6E1,3.15E2,1E0,1.5E1,3.14E2,1E0,1.2E1,3E0,2.85E2,2.9E1,8E0,4E0,2E0,1E0,8E0,2.77E2,5E0,2.4E1,5E0,3E0,1E0,1E0,5E0,3E0,2.75E2,2E0,4E0,1E0,4E0,2E1,3E0,2E0,3E0,2E0,2.8E1,2.47E2,6E0,1.4E1],"tree_param":{"num_deleted":"0","num_feature":"10","num_nodes":"39","size_leaf_vector":"0"}},{"base_weights":[1.729571E0,1.6127005E0,2.0206863E1,-1.8454017E-1,2.9639845E0,-4.2613482E-1,1.7060951E1,4.6762075E0,3.5665065E-1,2.7155468E0,-1.7727966E0,3.5117095E0,1.5260896E1,2.9019842E1,-8.101902E-1,8.84451E0,-2.5050704E0,-5.939265E0,1.8517122E-1,8.027752E0,-5.0253665E-1,2.3751694E1,4.226616E0,-4.223676E0,6.9424815E0,-7.242973E-1,1.8485748E1,-1.2163511E1,5.2626376E0,1.4526405E0,-9.365251E0,4.29473E0,-3.7012224E0,1.3138867E1,5.872701E-1,-3.5306442E0,8.833975E0,6.0777664E-1,7.642863E0,-6.2388206E0,7.639471E0,1.1922308E1,4.260975E-1],"categories":[],"categories_nodes":[],"categories_segments":[],"categories_sizes":[],"default_left":[1,1,0,1,1,1,0,1,1,1,1,1,1,0,1,1,1,1,1,1,1,0,1,1,1,0,0,0,0,0,0,0,0,0,0,0,0,0,0,0,0,0,0],"id":14,"left_children":[1,3,-1,5,7,9,-1,11,13,15,17,19,21,-1,23,25,27,29,31,33,35,-1,37,39,41,-1,-1,-1,-1,-1,-1,-1,-1,-1,-1,-1,-1,-1,-1,-1,-1,-1,-1],"loss_changes":[6.843502E2,8.044078E2,0E0,6.030681E2,8.4209204E2,6.0558527E2,0E0,1.3515549E3,2.5653606E3,1.398026E3,8.1688074E2,1.8893984E3,9.30199E2,0E0,1.9876318E3,1.8584921E3,1.8645868E3,8.239905E2,1.1179198E3,1.8557134E3,1.6144193E3,0E0,6.9531944E1,1.290771E3,7.4128064E2,0E0,0E0,0E0,0E0,0E0,0E0,0E0,0E0,0E0,0E0,0E0,0E0,0E0,0E0,0E0,0E0,0E0,0E0],"parents":[2147483647,0,0,1,1,3,3,4,4,5,5,7,7,8,8,9,9,10,10,11,11,12,12,14,14,15,15,16,16,17,17,18,18,19,19,20,20,22,22,23,23,24,24],"right_children":[2,4,-1,6,8,10,-1,12,14,16,18,20,22,-1,24,26,28,30,32,34,36,-1,38,40,42,-1,-1,-1,-1,-1,-1,-1,-1,-1,-1,-1,-1,-1,-1,-1,-1,-1,-1],"split_conditions":[9.857143E-1,4.42003E-1,6.0620594E0,7.026893E-1,4.492032E-1,3.25E-1,5.1182857E0,7.80303E-1,4.569853E-1,3.7121212E-1,3.7121212E-1,5E-1,5.9227467E-1,8.705953E0,7.041662E-1,2.4166667E-1,4.7727275E-1,2.5E-1,3.9705884E-1,6.120771E-1,3.9591634E-1,7.1255083E0,5.588235E-1,6.642857E-1,5.579399E-1,-2.172892E-1,5.545725E0,-3.6490536E0,1.5787914E0,4.3579218E-1,-2.8095753E0,1.2884191E0,-1.1103668E0,3.9416604E0,1.7618103E-1,-1.0591933E0,2.6501925E0,1.82333E-1,2.2928588E0,-1.8716463E0,2.2918415E0,3.5766926E0,1.2782925E-1],"split_indices":[3,8,0,5,5,0,0,9,8,9,9,1,2,0,8,0,9,9,4,8,5,0,4,3,2,0,0,0,0,0,0,0,0,0,0,0,0,0,0,0,0,0,0],"split_type":[0,0,0,0,0,0,0,0,0,0,0,0,0,0,0,0,0,0,0,0,0,0,0,0,0,0,0,0,0,0,0,0,0,0,0,0,0,0,0,0,0,0,0],"sum_hessian":[3.31E2,3.3E2,1E0,1.42E2,1.88E2,1.41E2,1E0,1.13E2,7.5E1,4.2E1,9.9E1,1.03E2,1E1,2E0,7.3E1,1.9E1,2.3E1,3.1E1,6.8E1,4.8E1,5.5E1,5E0,5E0,5.1E1,2.2E1,1E1,9E0,1E1,1.3E1,1E1,2.1E1,3.3E1,3.5E1,2.8E1,2E1,4.2E1,1.3E1,3E0,2E0,4.4E1,7E0,1.2E1,1E1],"tree_param":{"num_deleted":"0","num_feature":"10","num_nodes":"43","size_leaf_vector":"0"}},{"base_weights":[1.332335E0,4.388808E0,7.6198304E-1,1.2055684E1,1.7873526E0,-2.4545255E-1,3.0491388E0,5.213808E0,2.1959925E1,-3.770347E0,4.6029243E0,-1.7319942E0,2.6425455E0,1.9426162E0,2.0586283E1,7.234713E0,-1.2395731E0,2.536168E1,4.1764526E0,1.8577948E0,-9.663888E0,-1.8645005E0,8.516969E0,-7.113241E-1,-1.3908903E1,1.9357376E1,1.5565788E0,-6.2946463E0,3.7310915E0,2.8336227E1,-5.206749E0,2.6090443E0,8.563171E0,1.0083672E1,-7.57855E-1,-1.2910131E1,-1.0321859E0,-1.5723534E1,8.301166E0,1.2133036E1,-2.588199E0,-1.4349316E0,1.3396976E1,-1.7884495E1,1.3289744E0,2.4450644E1,2.0387878E0,1.0320955E-1,1.5588613E1,-1.549185E0,-1.1496718E1,1.33149805E1,1.2237182E0,1.3344742E0,-3.992452E0,-2.7945328E0,1.246254E0,-2.0929373E1,2.5499115E0,1.3171911E1,1.3551292E0,5.0379436E-2,1.9678398E1,-5.8068542E0,-3.3182144E-1,-1.8179116E0,2.1303879E1,2.602906E1,5.6647477E0,-2.0193901E1,-8.593216E-1,8.3192215E0,-6.32576E0,-4.261645E0,5.4342093E0,1.8230518E1,6.869868E0,6.664032E0,-3.4088411E0,2.3683645E1,2.5780258E0,-9.417412E0,2.0187335E0],"categories":[],"categories_nodes":[],"categories_segments":[],"categories_sizes":[],"default_left":[1,1,1,1,1,1,1,1,1,1,1,1,1,1,1,1,0,0,0,1,1,1,1,1,1,1,1,1,1,0,0,0,0,0,1,0,1,1,1,1,1,1,1,1,1,0,0,1,1,1,0,1,1,0,0,0,0,0,0,0,0,0,0,0,0,0,0,0,0,0,0,0,0,0,0,0,0,0,0,0,0,0,0],"id":15,"left_children":[1,3,5,7,9,11,13,15,17,19,21,23,25,27,29,31,-1,-1,-1,33,35,37,39,41,43,45,47,49,51,-1,-1,-1,-1,-1,53,-1,55,57,59,61,63,65,67,69,71,-1,-1,73,75,77,-1,79,81,-1,-1,-1,-1,-1,-1,-1,-1,-1,-1,-1,-1,-1,-1,-1,-1,-1,-1,-1,-1,-1,-1,-1,-1,-1,-1,-1,-1,-1,-1],"loss_changes":[5.7541986E2,1.0155941E3,6.48218E2,7.6643164E2,6.432787E2,8.460302E2,1.6288601E3,1.2634297E2,1.9655322E2,4.8232916E2,6.993523E2,1.6058252E3,1.1860359E3,1.2315214E3,1.1470125E3,2.067337E1,0E0,0E0,0E0,1.7977008E2,1.828186E2,1.6802731E3,7.1407214E2,1.2544973E3,6.2956384E2,3.0298315E2,1.3035897E3,3.5248297E2,1.6177726E3,0E0,0E0,0E0,0E0,0E0,5.2702717E1,0E0,1.5528901E1,5.290111E2,2.1897702E2,1.1841927E3,3.4385666E1,1.0489155E3,4.385968E2,2.9719116E2,2.1315085E2,0E0,0E0,1.3960319E3,1.2963257E1,1.6018047E2,0E0,1.4975334E3,4.8430365E2,0E0,0E0,0E0,0E0,0E0,0E0,0E0,0E0,0E0,0E0,0E0,0E0,0E0,0E0,0E0,0E0,0E0,0E0,0E0,0E0,0E0,0E0,0E0,0E0,0E0,0E0,0E0,0E0,0E0,0E0],"parents":[2147483647,0,0,1,1,2,2,3,3,4,4,5,5,6,6,7,7,8,8,9,9,10,10,11,11,12,12,13,13,14,14,15,15,19,19,20,20,21,21,22,22,23,23,24,24,25,25,26,26,27,27,28,28,34,34,36,36,37,37,38,38,39,39,40,40,41,41,42,42,43,43,44,44,47,47,48,48,49,49,51,51,52,52],"right_children":[2,4,6,8,10,12,14,16,18,20,22,24,26,28,30,32,-1,-1,-1,34,36,38,40,42,44,46,48,50,52,-1,-1,-1,-1,-1,54,-1,56,58,60,62,64,66,68,70,72,-1,-1,74,76,78,-1,80,82,-1,-1,-1,-1,-1,-1,-1,-1,-1,-1,-1,-1,-1,-1,-1,-1,-1,-1,-1,-1,-1,-1,-1,-1,-1,-1,-1,-1,-1,-1],"split_conditions":[1.6891891E-1,5E-1,6.25E-1,1.2837838E-1,3.476395E-1,3.9270386E-1,6.762948E-1,7.285714E-1,6.5E-1,4.5714286E-1,5.25E-1,5.283865E-1,4.0987122E-1,4.0151516E-1,8.416667E-1,4.6813726E-1,-3.7187195E-1,7.608504E0,1.2529359E0,7.4324325E-2,6.75E-1,5.8376366E-1,4.860558E-1,6.024519E-1,4.797297E-1,5.083333E-1,5E-1,5.294118E-1,6.75E-1,8.500869E0,-1.5620247E0,7.8271335E-1,2.5689516E0,3.0251017E0,2.8969955E-1,-3.8730395E0,7.5E-1,6.7142856E-1,4.5278972E-1,3.1523904E-1,6.25E-1,8.181818E-1,2.3333333E-1,6.480135E-1,5.25E-1,7.335193E0,6.116364E-1,5.214286E-1,5.151515E-1,1.09442055E-1,-3.4490156E0,5.214286E-1,1.8243244E-1,4.003423E-1,-1.1977357E0,-8.383599E-1,3.738762E-1,-6.278812E0,7.6497346E-1,3.9515736E0,4.0653878E-1,1.51138315E-2,5.9035196E0,-1.7420564E0,-9.954644E-2,-5.453735E-1,6.391164E0,7.808718E0,1.6994244E0,-6.058171E0,-2.577965E-1,2.4957666E0,-1.8977281E0,-1.2784935E0,1.6302629E0,5.469156E0,2.0609605E0,1.9992096E0,-1.0226524E0,7.105094E0,7.7340776E-1,-2.8252237E0,6.056201E-1],"split_indices":[6,1,0,6,2,2,5,3,0,3,0,5,2,9,0,4,0,0,0,6,0,8,5,8,6,0,6,4,0,0,0,0,0,0,2,0,0,3,2,5,0,9,0,8,0,0,0,3,9,2,0,3,6,0,0,0,0,0,0,0,0,0,0,0,0,0,0,0,0,0,0,0,0,0,0,0,0,0,0,0,0,0,0],"split_type":[0,0,0,0,0,0,0,0,0,0,0,0,0,0,0,0,0,0,0,0,0,0,0,0,0,0,0,0,0,0,0,0,0,0,0,0,0,0,0,0,0,0,0,0,0,0,0,0,0,0,0,0,0,0,0,0,0,0,0,0,0,0,0,0,0,0,0,0,0,0,0,0,0,0,0,0,0,0,0,0,0,0,0],"sum_hessian":[3.31E2,5.1E1,2.8E2,1.2E1,3.9E1,1.95E2,8.5E1,8E0,4E0,1.3E1,2.6E1,1.29E2,6.6E1,8.1E1,4E0,6E0,2E0,3E0,1E0,7E0,6E0,1E1,1.6E1,1.2E2,9E0,3E0,6.3E1,1.4E1,6.7E1,3E0,1E0,2E0,4E0,1E0,6E0,4E0,2E0,4E0,6E0,1.2E1,4E0,1.15E2,5E0,7E0,2E0,2E0,1E0,5.8E1,5E0,8E0,6E0,1.3E1,5.4E1,4E0,2E0,1E0,1E0,3E0,1E0,3E0,3E0,5E0,7E0,1E0,3E0,1.14E2,1E0,1E0,4E0,6E0,1E0,1E0,1E0,3.2E1,2.6E1,3E0,2E0,1E0,7E0,6E0,7E0,3E0,5.1E1],"tree_param":{"num_deleted":"0","num_feature":"10","num_nodes":"83","size_leaf_vector":"0"}},{"base_weights":[1.0779442E0,9.7577167E-1,1.7448524E1,6.084974E-1,4.2739305E0,8.698531E-1,-6.313349E0,9.736688E0,2.6993666E0,4.281597E-1,5.140057E0,3.8949966E0,-1.0628353E1,1.4109135E1,2.930069E0,-7.4083405E0,3.3730607E0,1.0289346E0,-1.0330546E1,-5.748877E0,7.2837358E0,8.263718E0,-3.1581625E-1,-1.3129664E1,-2.0829468E0,4.1062927E-1,3.6330059E0,5.5407033E0,1.1193172E0,2.3490381E-1,8.165816E0,-1.6678555E1,-3.4847212E0,-1.0830104E1,1.248642E0,9.397465E0,-2.2051818E0,3.694458E-1,-8.4317017E-1,-2.4440613E0,-1.4777972E1,-3.1198978E-1,7.32771E0,1.7135453E0,-7.946396E-1],"categories":[],"categories_nodes":[],"categories_segments":[],"categories_sizes":[],"default_left":[1,1,0,1,1,1,1,1,1,1,1,1,1,0,1,0,1,1,1,1,1,0,1,1,0,0,0,1,1,0,0,0,0,0,0,0,0,0,0,0,0,0,0,0,0],"id":16,"left_children":[1,3,-1,5,7,9,11,13,15,17,19,21,23,-1,25,-1,27,29,31,33,35,-1,37,39,-1,-1,-1,41,43,-1,-1,-1,-1,-1,-1,-1,-1,-1,-1,-1,-1,-1,-1,-1,-1],"loss_changes":[5.382853E2,3.9834924E2,0E0,5.464019E2,2.5756537E2,5.428882E2,5.25937E2,1.669903E2,2.0884534E2,1.710546E3,6.721175E2,7.61933E1,1.4364935E2,0E0,5.5922127E0,0E0,1.20816284E2,1.4148077E3,5.5028296E2,1.9130278E2,4.8203406E2,0E0,1.3956326E0,6.956079E1,0E0,0E0,0E0,1.3825055E2,1.7284231E1,0E0,0E0,0E0,0E0,0E0,0E0,0E0,0E0,0E0,0E0,0E0,0E0,0E0,0E0,0E0,0E0],"parents":[2147483647,0,0,1,1,3,3,4,4,5,5,6,6,7,7,8,8,9,9,10,10,11,11,12,12,14,14,16,16,17,17,18,18,19,19,20,20,22,22,23,23,27,27,28,28],"right_children":[2,4,-1,6,8,10,12,14,16,18,20,22,24,-1,26,-1,28,30,32,34,36,-1,38,40,-1,-1,-1,42,44,-1,-1,-1,-1,-1,-1,-1,-1,-1,-1,-1,-1,-1,-1,-1,-1],"split_conditions":[9.857143E-1,6.2875533E-1,5.2345576E0,5.9871244E-1,3.9460784E-1,5.3218883E-1,2.549801E-1,6.357143E-1,6.330472E-1,4.8712444E-1,2.3007968E-1,3.480392E-1,7.0714283E-1,4.2327404E0,4.75E-1,-2.2225022E0,6.142857E-1,4.3133047E-1,4.5343137E-1,4.5E-1,7.416667E-1,2.4791155E0,6.583333E-1,3.4166667E-1,-6.2488407E-1,1.23188786E-1,1.0899018E0,3E-1,4.9365303E-1,7.0471145E-2,2.449745E0,-5.0035667E0,-1.0454164E0,-3.2490313E0,3.745926E-1,2.8192396E0,-6.615546E-1,1.1083374E-1,-2.5295106E-1,-7.3321843E-1,-4.433392E0,-9.3596935E-2,2.1983132E0,5.140636E-1,-2.3839189E-1],"split_indices":[3,2,0,2,4,2,5,3,2,2,5,4,3,0,0,0,3,2,4,0,0,0,0,0,0,0,0,0,7,0,0,0,0,0,0,0,0,0,0,0,0,0,0,0,0],"split_type":[0,0,0,0,0,0,0,0,0,0,0,0,0,0,0,0,0,0,0,0,0,0,0,0,0,0,0,0,0,0,0,0,0,0,0,0,0,0,0,0,0,0,0,0,0],"sum_hessian":[3.31E2,3.3E2,1E0,2.98E2,3.2E1,2.88E2,1E1,6E0,2.6E1,2.62E2,2.6E1,3E0,7E0,3E0,3E0,1E0,2.5E1,2.49E2,1.3E1,4E0,2.2E1,1E0,2E0,5E0,2E0,1E0,2E0,1.2E1,1.3E1,2.25E2,2.4E1,6E0,7E0,2E0,2E0,1.8E1,4E0,1E0,1E0,1E0,4E0,3E0,9E0,1E1,3E0],"tree_param":{"num_deleted":"0","num_feature":"10","num_nodes":"45","size_leaf_vector":"0"}},{"base_weights":[7.6401454E-1,6.76708E-1,1.4831245E1,3.8515866E-2,2.0309978E0,3.5784855E-1,-8.708031E0,1.3389881E0,1.5741794E1,-1.0306612E0,2.3975894E0,-3.2251701E0,-2.354403E1,3.8570845E0,-1.2547374E0,2.1907726E1,-4.460968E0,-4.8324364E-1,-1.8290358E1,7.1016765E0,3.4349507E-1,1.2818727E0,-6.9259205E0,5.161326E0,-1.4733901E0,-5.6025324E0,1.7310185E0,1.2886058E1,-7.977251E-1,2.5646887E0,2.2553686E1,-4.536858E0,3.6736445E0,-3.9878845E-2,1.7357496E0,-7.6565933E-1,-8.724121E0,4.3801332E-1,7.7691655E0,-1.4948959E1,1.3690628E0,-1.1068356E1,-1.3875369E0,-1.7393615E0,7.3707337E0],"categories":[],"categories_nodes":[],"categories_segments":[],"categories_sizes":[],"default_left":[1,1,0,1,1,1,1,1,1,1,1,1,0,1,1,0,0,1,0,1,1,1,1,1,1,1,1,0,0,0,0,0,0,0,0,0,0,0,0,0,0,0,0,0,0],"id":17,"left_children":[1,3,-1,5,7,9,11,13,15,17,19,21,-1,23,25,-1,-1,27,-1,29,31,33,35,37,39,41,43,-1,-1,-1,-1,-1,-1,-1,-1,-1,-1,-1,-1,-1,-1,-1,-1,-1,-1],"loss_changes":[3.9771326E2,2.860041E2,0E0,6.3434735E2,9.8465015E2,6.227229E2,5.7481616E2,6.710272E2,7.20574E2,1.2288834E3,8.575354E2,1.2563423E2,0E0,3.6912036E2,6.7175226E2,0E0,0E0,5.484424E2,0E0,1.8350074E3,1.040562E3,2.4688692E0,3.7629837E1,5.1393787E2,4.4180643E2,4.684491E2,6.19551E2,0E0,0E0,0E0,0E0,0E0,0E0,0E0,0E0,0E0,0E0,0E0,0E0,0E0,0E0,0E0,0E0,0E0,0E0],"parents":[2147483647,0,0,1,1,3,3,4,4,5,5,6,6,7,7,8,8,9,9,10,10,11,11,13,13,14,14,17,17,19,19,20,20,21,21,22,22,23,23,24,24,25,25,26,26],"right_children":[2,4,-1,6,8,10,12,14,16,18,20,22,-1,24,26,-1,-1,28,-1,30,32,34,36,38,40,42,44,-1,-1,-1,-1,-1,-1,-1,-1,-1,-1,-1,-1,-1,-1,-1,-1,-1,-1],"split_conditions":[9.857143E-1,6.25E-1,4.4493737E0,6.0833335E-1,6.762948E-1,5.114343E-1,5.928571E-1,3.8545817E-1,8.416667E-1,4.9859488E-1,4.9242425E-1,5.054781E-1,-7.063209E0,7.175677E-1,5.681818E-1,6.572318E0,-1.3382905E0,1.0810811E-1,-5.4871073E0,3.581081E-1,5.984849E-1,2.2857143E-1,5E-1,2.7091634E-1,7.24488E-1,4.3276894E-1,6.2600553E-1,3.8658175E0,-2.3931754E-1,7.694066E-1,6.766106E0,-1.3610575E0,1.1020935E0,-1.1963654E-2,5.207249E-1,-2.2969781E-1,-2.6172364E0,1.31404E-1,2.3307498E0,-4.484688E0,4.1071886E-1,-3.3205068E0,-4.1626108E-1,-5.218085E-1,2.2112203E0],"split_indices":[3,0,0,0,5,8,3,5,0,8,9,5,0,8,9,0,0,6,0,6,9,3,1,5,8,5,8,0,0,0,0,0,0,0,0,0,0,0,0,0,0,0,0,0,0],"split_type":[0,0,0,0,0,0,0,0,0,0,0,0,0,0,0,0,0,0,0,0,0,0,0,0,0,0,0,0,0,0,0,0,0,0,0,0,0,0,0,0,0,0,0,0,0],"sum_hessian":[3.31E2,3.3E2,1E0,2.25E2,1.05E2,2.18E2,7E0,1.01E2,4E0,1.3E2,8.8E1,6E0,1E0,5.1E1,5E1,3E0,1E0,1.27E2,3E0,2.6E1,6.2E1,3E0,3E0,4.1E1,1E1,2E1,3E1,2E0,1.25E2,2.1E1,5E0,2.5E1,3.7E1,1E0,2E0,1E0,2E0,1.5E1,2.6E1,1E0,9E0,8E0,1.2E1,1.9E1,1.1E1],"tree_param":{"num_deleted":"0","num_feature":"10","num_nodes":"45","size_leaf_vector":"0"}},{"base_weights":[5.409512E-1,9.676388E-1,-1.943135E0,-3.887922E-4,2.4763699E0,-5.250578E0,1.442033E0,3.9328688E-1,-9.448549E0,6.6405196E0,9.915903E-1,-7.5526876E0,3.2982178E0,9.954423E0,-2.4213643E0,-7.167298E-1,2.626119E0,-1.2919452E1,-5.1419574E-1,1.3990583E0,1.813276E1,-1.5186288E0,3.4782002E0,-4.403183E0,-1.6120564E1,-4.8747406E0,8.603382E0,-2.6534245E0,1.4599277E1,-7.802458E0,5.2803097E0,6.049182E-1,-5.9146967E0,1.0854337E1,1.2291422E0,-1.4175028E1,-3.948574E0,-1.7807541E0,1.0094604E0,-8.563012E0,5.047394E0,2.2845524E1,-9.784676E0,6.165848E0,-3.801239E0,1.7018328E1,2.0002844E0,-5.5568724E0,6.4510803E0,-1.9310175E1,-1.6810608E0,-6.059696E0,2.0795593E0,1.9705627E1,2.9243824E0,7.273163E0,-1.0037336E1,1.3425247E1,2.1988547E0,-2.0461318E-1,9.029383E0,-2.7475142E0,-1.676705E1,-3.3057506E0,1.6125324E1,6.1662935E-2,9.5858E0,3.7644703E0,-1.5667871E1,-3.9726348E0,1.7212093E1,2.6591585E1,7.7382255E0,-3.2003275E-1,7.827322E0,-1.5091344E1,1.0613562E0,-6.5348434E-1,2.312676E1,1.19972594E-1,3.9732456E0,-9.16478E0,-2.836441E0,-5.0849915E-2,4.4374237E0,-3.9414856E0,-1.3444322E1,8.115234E-2,4.995407E0],"categories":[],"categories_nodes":[],"categories_segments":[],"categories_sizes":[],"default_left":[1,1,1,1,1,1,1,1,1,1,1,1,1,1,1,1,1,1,1,1,1,1,1,1,1,0,0,1,1,1,1,1,1,1,1,0,0,0,0,1,1,1,0,1,1,1,1,1,0,0,0,0,0,0,1,0,1,0,1,0,0,0,0,0,0,0,0,0,0,0,0,0,0,0,0,0,0,0,0,0,0,0,0,0,0,0,0,0,0],"id":18,"left_children":[1,3,5,7,9,11,13,15,17,19,21,23,25,27,29,31,33,35,37,39,41,43,45,47,49,-1,-1,51,53,55,57,59,61,63,65,-1,-1,-1,-1,67,69,71,-1,73,75,77,79,81,-1,-1,-1,-1,-1,-1,83,-1,85,-1,87,-1,-1,-1,-1,-1,-1,-1,-1,-1,-1,-1,-1,-1,-1,-1,-1,-1,-1,-1,-1,-1,-1,-1,-1,-1,-1,-1,-1,-1,-1],"loss_changes":[3.5377658E2,4.1478104E2,5.5618774E2,6.50911E2,6.7971106E2,5.16917E2,8.462719E2,4.1826703E2,2.1042877E2,1.7214791E3,5.2336273E2,4.687096E2,3.0209256E2,5.0723077E2,7.87181E2,7.7987463E2,6.3035767E2,3.4692383E-1,7.586999E0,8.064654E2,1.4076509E3,7.6014575E2,8.0642755E2,2.3620703E2,1.9782031E2,0E0,0E0,6.096698E1,3.0006995E2,4.4361713E2,1.7126588E2,6.2245557E2,7.44474E2,6.504073E2,4.7746393E2,0E0,0E0,0E0,0E0,5.8449146E2,1.8239924E3,2.4697119E2,0E0,1.10266235E2,1.8276912E3,4.4690125E2,1.4420486E2,1.2123059E2,0E0,0E0,0E0,0E0,0E0,0E0,1.3730593E1,0E0,1.5469415E2,0E0,4.105047E1,0E0,0E0,0E0,0E0,0E0,0E0,0E0,0E0,0E0,0E0,0E0,0E0,0E0,0E0,0E0,0E0,0E0,0E0,0E0,0E0,0E0,0E0,0E0,0E0,0E0,0E0,0E0,0E0,0E0,0E0],"parents":[2147483647,0,0,1,1,2,2,3,3,4,4,5,5,6,6,7,7,8,8,9,9,10,10,11,11,12,12,13,13,14,14,15,15,16,16,17,17,18,18,19,19,20,20,21,21,22,22,23,23,24,24,27,27,28,28,29,29,30,30,31,31,32,32,33,33,34,34,39,39,40,40,41,41,43,43,44,44,45,45,46,46,47,47,54,54,56,56,58,58],"right_children":[2,4,6,8,10,12,14,16,18,20,22,24,26,28,30,32,34,36,38,40,42,44,46,48,50,-1,-1,52,54,56,58,60,62,64,66,-1,-1,-1,-1,68,70,72,-1,74,76,78,80,82,-1,-1,-1,-1,-1,-1,84,-1,86,-1,88,-1,-1,-1,-1,-1,-1,-1,-1,-1,-1,-1,-1,-1,-1,-1,-1,-1,-1,-1,-1,-1,-1,-1,-1,-1,-1,-1,-1,-1,-1],"split_conditions":[5.2589643E-1,5.114343E-1,5.681818E-1,4.9859488E-1,4.9242425E-1,6.428572E-1,6.287879E-1,4.3382353E-1,6.583333E-1,4.469697E-1,6.287879E-1,5.7857144E-1,3.8333333E-1,2.2142857E-1,6.556715E-1,3.8480392E-1,4.4362745E-1,6.166667E-1,7.5E-1,2.7141434E-1,4.561753E-1,3.872549E-1,5.444901E-1,8.8725495E-1,8.416667E-1,-1.4624223E0,2.5810146E0,8.5E-1,6.84951E-1,3.5000002E-1,5.450644E-1,3.192231E-1,4.4577932E-1,3.5535884E-1,4.3776822E-1,-4.2525086E0,-1.1845722E0,-5.3422624E-1,3.0283815E-1,2.52451E-1,3.4120172E-1,6.049461E-1,-2.9354029E0,5.2272725E-1,4.8284313E-1,4.166667E-1,6.4166665E-1,2.8540772E-1,1.9353242E0,-5.7930527E0,-5.0431824E-1,-1.8179089E0,6.238678E-1,5.9116883E0,5.5833334E-1,2.181949E0,2.2297297E-1,4.0275745E0,7.8784204E-1,-6.1383955E-2,2.7088149E0,-8.2425433E-1,-5.030115E0,-9.917252E-1,4.8375974E0,1.849888E-2,2.87574E0,1.1293411E0,-4.7003617E0,-1.1917905E0,5.163628E0,7.9774756E0,2.3214676E0,-9.600983E-2,2.3481967E0,-4.5274034E0,3.1840688E-1,-1.9604531E-1,6.9380283E0,3.599178E-2,1.1919737E0,-2.749434E0,-8.5093236E-1,-1.5254975E-2,1.3312272E0,-1.1824458E0,-4.0332966E0,2.4345703E-2,1.4986222E0],"split_indices":[5,8,9,8,9,3,9,4,0,9,9,3,0,3,8,4,4,0,0,5,5,4,8,4,0,0,0,0,8,0,2,5,8,8,2,0,0,0,0,4,2,8,0,9,4,0,0,2,0,0,0,0,0,0,0,0,6,0,8,0,0,0,0,0,0,0,0,0,0,0,0,0,0,0,0,0,0,0,0,0,0,0,0,0,0,0,0,0,0],"split_type":[0,0,0,0,0,0,0,0,0,0,0,0,0,0,0,0,0,0,0,0,0,0,0,0,0,0,0,0,0,0,0,0,0,0,0,0,0,0,0,0,0,0,0,0,0,0,0,0,0,0,0,0,0,0,0,0,0,0,0,0,0,0,0,0,0,0,0,0,0,0,0,0,0,0,0,0,0,0,0,0,0,0,0,0,0,0,0,0,0],"sum_hessian":[3.31E2,2.83E2,4.8E1,1.73E2,1.1E2,2.4E1,2.4E1,1.67E2,6E0,2.8E1,8.2E1,1.9E1,5E0,7E0,1.7E1,1.12E2,5.5E1,4E0,2E0,2E1,8E0,4.1E1,4.1E1,1.5E1,4E0,2E0,3E0,2E0,5E0,1E1,7E0,9E1,2.2E1,7E0,4.8E1,3E0,1E0,1E0,1E0,5E0,1.5E1,7E0,1E0,9E0,3.2E1,3E0,3.8E1,1.4E1,1E0,3E0,1E0,1E0,1E0,3E0,2E0,1E0,9E0,1E0,6E0,8.3E1,7E0,1.8E1,4E0,2E0,5E0,4.3E1,5E0,2E0,3E0,9E0,6E0,5E0,2E0,2E0,7E0,9E0,2.3E1,1E0,2E0,2E1,1.8E1,5E0,9E0,1E0,1E0,4E0,5E0,4E0,2E0],"tree_param":{"num_deleted":"0","num_feature":"10","num_nodes":"89","size_leaf_vector":"0"}},{"base_weights":[4.1887307E-1,4.964139E0,2.0315653E-1,8.136194E-2,1.471342E1,1.216606E-1,1.3018684E1,-5.36297E0,3.9585474E0,1.836939E1,4.4769287E-2,-5.9261255E0,2.7734005E-1,-1.3057352E0,-7.632548E0,6.7378025E0,1.896553E-1,1.3678551E0,-8.585428E0,4.0555286E0,4.428633E-2,-8.31604E-2,9.039177E0,2.5255928E0,-1.4308548E0,3.2101173E0,-1.1583347E0,-1.0845484E1,1.3574257E0,7.352508E0,-5.9871187E0,-7.7204686E-1,1.3145416E0,1.3236343E1,1.2850885E0,-6.8982544E0,-1.1712875E0,-6.872671E-2,-5.311459E0,7.5032163E0,3.824162E-1],"categories":[],"categories_nodes":[],"categories_segments":[],"categories_sizes":[],"default_left":[1,1,1,1,1,1,0,1,1,0,0,1,1,0,0,1,1,1,1,1,1,0,0,0,0,0,0,0,0,1,1,1,1,0,0,0,0,0,0,0,0],"id":19,"left_children":[1,3,5,7,9,11,-1,13,15,-1,-1,17,19,-1,-1,21,23,25,27,29,31,-1,-1,-1,-1,-1,-1,-1,-1,33,35,37,39,-1,-1,-1,-1,-1,-1,-1,-1],"loss_changes":[3.2451385E2,7.128563E2,3.305396E2,2.534251E2,2.6731848E2,3.0010413E2,0E0,3.607498E1,7.2045135E1,0E0,0E0,1.6691882E2,2.7278186E2,0E0,0E0,6.3542053E1,1.8755398E1,1.7680103E1,1.4955038E2,6.4000757E2,3.0484167E2,0E0,0E0,0E0,0E0,0E0,0E0,0E0,0E0,4.8278595E2,1.3859558E1,5.7112103E2,6.6052203E2,0E0,0E0,0E0,0E0,0E0,0E0,0E0,0E0],"parents":[2147483647,0,0,1,1,2,2,3,3,4,4,5,5,7,7,8,8,11,11,12,12,15,15,16,16,17,17,18,18,19,19,20,20,29,29,30,30,31,31,32,32],"right_children":[2,4,6,8,10,12,-1,14,16,-1,-1,18,20,-1,-1,22,24,26,28,30,32,-1,-1,-1,-1,-1,-1,-1,-1,34,36,38,40,-1,-1,-1,-1,-1,-1,-1,-1],"split_conditions":[9.166667E-2,4.7727275E-1,9.857143E-1,2.1078432E-1,5E-1,8.3690986E-2,3.9056056E0,1.6421568E-1,4.054054E-1,5.5108175E0,1.3430786E-2,1.5E-1,2.5E-1,-3.917206E-1,-2.2897644E0,2.5E-2,7.510729E-2,2.5833333E-1,5.1666665E-1,5E-1,5.681818E-1,-2.4948122E-2,2.7117531E0,7.5767785E-1,-4.2925647E-1,9.630352E-1,-3.4750044E-1,-3.2536452E0,4.0722772E-1,3.1127453E-1,3.583691E-1,5.3787875E-1,5.833333E-1,3.9709032E0,3.8552657E-1,-2.0694764E0,-3.5138628E-1,-2.0618014E-2,-1.5934378E0,2.2509649E0,1.1472486E-1],"split_indices":[0,9,3,4,1,2,0,4,6,0,0,3,9,0,0,0,2,0,0,1,9,0,0,0,0,0,0,0,0,4,2,9,9,0,0,0,0,0,0,0,0],"split_type":[0,0,0,0,0,0,0,0,0,0,0,0,0,0,0,0,0,0,0,0,0,0,0,0,0,0,0,0,0,0,0,0,0,0,0,0,0,0,0,0,0],"sum_hessian":[3.31E2,1.4E1,3.17E2,1E1,4E0,3.16E2,1E0,4E0,6E0,3E0,1E0,7E0,3.09E2,2E0,2E0,3E0,3E0,2E0,5E0,1.7E1,2.92E2,1E0,2E0,1E0,2E0,1E0,1E0,4E0,1E0,1.3E1,4E0,1.78E2,1.14E2,6E0,7E0,3E0,1E0,1.55E2,2.3E1,1.4E1,1E2],"tree_param":{"num_deleted":"0","num_feature":"10","num_nodes":"41","size_leaf_vector":"0"}},{"base_weights":[3.239933E-1,2.581088E-1,1.106588E1,3.8654327E0,8.6601004E-2,8.729553E-2,1.1404248E1,-3.6289515E0,2.4468488E-1,-4.2903748E0,3.2017322E0,1.4236282E1,3.805542E-2,-9.119545E0,9.4261265E-1,1.2324513E0,-4.3882608E-1,-1.0445862E0,-6.1060386E0,7.0447844E-1,6.2965775E0,4.297966E0,1.61164E1,-9.882838E0,-2.6515388E0,7.1546326E0,-4.2155256E0,4.9587908E-1,1.0670951E1,-2.7099822E0,8.571664E-1,-2.732544E-1,-1.2936249E0,3.5489044E0,-8.9385414E-1,6.8235016E-1,-5.6105824E0,-1.4761736E0,2.527384E0,1.5984523E1,-5.284369E0,5.1404443E0,-4.3735304E0,3.432093E-1,7.7526865E0],"categories":[],"categories_nodes":[],"categories_segments":[],"categories_sizes":[],"default_left":[1,1,0,1,1,1,1,1,1,1,1,1,0,1,1,1,1,1,0,1,0,0,0,0,0,0,1,1,1,1,1,0,0,0,0,0,0,0,0,0,0,0,0,0,0],"id":20,"left_children":[1,3,-1,5,7,9,11,13,15,17,19,21,-1,23,25,27,29,31,-1,33,-1,-1,-1,-1,-1,-1,35,37,39,41,43,-1,-1,-1,-1,-1,-1,-1,-1,-1,-1,-1,-1,-1,-1],"loss_changes":[2.321081E2,2.0444969E2,0E0,4.2624463E2,1.8708391E2,1.6371036E2,1.6040546E2,3.34904E2,2.0646133E2,2.308802E1,4.9664497E1,5.4729614E0,0E0,3.4171753E0,2.8650018E2,8.6372565E2,5.3507855E2,2.2278595E-1,0E0,2.5903896E1,0E0,0E0,0E0,0E0,0E0,0E0,3.7992455E1,4.7246033E2,8.4748584E2,8.8441296E2,4.0844342E2,0E0,0E0,0E0,0E0,0E0,0E0,0E0,0E0,0E0,0E0,0E0,0E0,0E0,0E0],"parents":[2147483647,0,0,1,1,3,3,4,4,5,5,6,6,7,7,8,8,9,9,10,10,11,11,13,13,14,14,15,15,16,16,17,17,19,19,26,26,27,27,28,28,29,29,30,30],"right_children":[2,4,-1,6,8,10,12,14,16,18,20,22,-1,24,26,28,30,32,-1,34,-1,-1,-1,-1,-1,-1,36,38,40,42,44,-1,-1,-1,-1,-1,-1,-1,-1,-1,-1,-1,-1,-1,-1],"split_conditions":[9.857143E-1,9.166667E-2,3.3197641E0,4.7727275E-1,1.7500001E-1,2.1078432E-1,5E-1,2.8969955E-1,4.9242425E-1,1.6421568E-1,3.4848487E-1,2.5E-2,1.1416626E-2,2.7896994E-1,5E-1,4.7727275E-1,5.681818E-1,3.3333335E-2,-1.8318117E0,8.583691E-2,1.8889734E0,1.2893898E0,4.83492E0,-2.9648516E0,-7.954617E-1,2.14639E0,1.25E-1,3.716216E-1,4.864865E-1,1.8243244E-1,6.464144E-1,-8.1976324E-2,-3.8808748E-1,1.0646714E0,-2.6815626E-1,2.0470506E-1,-1.6831747E0,-4.428521E-1,7.5821525E-1,4.795357E0,-1.5853108E0,1.5421333E0,-1.3120592E0,1.0296279E-1,2.3258061E0],"split_indices":[3,0,0,9,0,4,1,2,9,4,9,0,0,2,1,9,9,0,0,2,0,0,0,0,0,0,0,6,6,6,5,0,0,0,0,0,0,0,0,0,0,0,0,0,0],"split_type":[0,0,0,0,0,0,0,0,0,0,0,0,0,0,0,0,0,0,0,0,0,0,0,0,0,0,0,0,0,0,0,0,0,0,0,0,0,0,0,0,0,0,0,0,0],"sum_hessian":[3.31E2,3.3E2,1E0,1.4E1,3.16E2,1E1,4E0,1.2E1,3.04E2,4E0,6E0,3E0,1E0,5E0,7E0,1.24E2,1.8E2,2E0,2E0,4E0,2E0,1E0,2E0,4E0,1E0,3E0,4E0,1.16E2,8E0,6.5E1,1.15E2,1E0,1E0,1E0,3E0,1E0,3E0,5.9E1,5.7E1,6E0,2E0,1.1E1,5.4E1,1.08E2,7E0],"tree_param":{"num_deleted":"0","num_feature":"10","num_nodes":"45","size_leaf_vector":"0"}},{"base_weights":[2.6574332E-1,8.443184E0,1.9059765E-1,-5.716417E0,2.9906377E-1,-1.2270012E0,-6.3688993E0,1.5762662E0,-2.5122088E-1,3.7286153E-1,6.5602717E0,-4.9825163E0,4.3607306E-1,-2.822938E0,2.7963424E0,1.3003882E1,2.585999E0,-8.787724E0,4.449914E0,9.748261E0,-2.7069848E-3,2.7715912E0,-6.2547774E0,2.366684E1,1.3098007E0,-1.530866E0,1.9123955E1,-5.1226707E0,6.58126E0,-1.2822091E1,-3.0677109E0,1.641802E1,-1.3149763E0,2.4211998E0,1.8301788E1,-6.0743966E0,5.8377844E-1],"categories":[],"categories_nodes":[],"categories_segments":[],"categories_sizes":[],"default_left":[1,0,1,1,1,0,0,1,1,1,1,1,1,1,1,1,1,1,1,1,1,0,0,0,0,0,0,0,0,0,0,0,0,0,0,0,0],"id":21,"left_children":[1,-1,3,5,7,-1,-1,9,11,13,15,17,19,21,23,25,27,29,31,33,35,-1,-1,-1,-1,-1,-1,-1,-1,-1,-1,-1,-1,-1,-1,-1,-1],"loss_changes":[2.0240445E2,0E0,2.1314417E2,9.760956E0,2.2881409E2,0E0,0E0,5.8533594E2,7.43581E2,6.274906E2,4.5293652E2,1.0799829E3,8.1722687E2,6.893192E2,1.396145E3,6.519523E2,4.3408954E2,4.4527454E2,6.425426E2,5.197376E2,6.872499E2,0E0,0E0,0E0,0E0,0E0,0E0,0E0,0E0,0E0,0E0,0E0,0E0,0E0,0E0,0E0,0E0],"parents":[2147483647,0,0,2,2,3,3,4,4,7,7,8,8,9,9,10,10,11,11,12,12,13,13,14,14,15,15,16,16,17,17,18,18,19,19,20,20],"right_children":[2,-1,4,6,8,-1,-1,10,12,14,16,18,20,22,24,26,28,30,32,34,36,-1,-1,-1,-1,-1,-1,-1,-1,-1,-1,-1,-1,-1,-1,-1,-1],"split_conditions":[8.899778E-2,2.5329552E0,1.4688939E-1,2.3333333E-1,2.8934264E-1,-3.6810037E-1,-1.9106699E0,2.7141434E-1,3.1723106E-1,4.0833333E-1,4.318182E-1,5.641093E-1,3.897059E-1,2E-1,4.583333E-1,3.642857E-1,4.9242425E-1,5E-1,6.652264E-1,5.6428576E-1,4.1421568E-1,8.314774E-1,-1.8764333E0,7.1000524E0,3.9294025E-1,-4.5925984E-1,5.7371864E0,-1.5368012E0,1.9743781E0,-3.8466275E0,-9.203133E-1,4.9254065E0,-3.9449292E-1,7.2635996E-1,5.4905367E0,-1.822319E0,1.7513354E-1],"split_indices":[8,0,8,0,5,0,0,5,5,0,9,8,4,0,0,3,9,1,8,3,4,0,0,0,0,0,0,0,0,0,0,0,0,0,0,0,0],"split_type":[0,0,0,0,0,0,0,0,0,0,0,0,0,0,0,0,0,0,0,0,0,0,0,0,0,0,0,0,0,0,0,0,0,0,0,0,0],"sum_hessian":[3.31E2,2E0,3.29E2,5E0,3.24E2,1E0,4E0,9.7E1,2.27E2,7.9E1,1.8E1,2.8E1,1.99E2,3.4E1,4.5E1,6E0,1.2E1,2E1,8E0,8E0,1.91E2,1.3E1,2.1E1,2E0,4.3E1,2E0,4E0,4E0,8E0,1.1E1,9E0,2E0,6E0,5E0,3E0,1.6E1,1.75E2],"tree_param":{"num_deleted":"0","num_feature":"10","num_nodes":"37","size_leaf_vector":"0"}},{"base_weights":[2.3647396E-1,7.9090977E-1,-1.1347528E0,9.2811614E-1,-1.0220555E1,-1.5987128E0,6.0911E0,8.04598E-1,1.0211986E1,-1.7266922E0,-1.3604141E1,-6.7143054E0,-8.1139004E-1,1.5345001E0,1.443705E1,3.2151338E-1,3.1993904E0,1.3856583E1,1.4613953E0,-3.940299E0,-1.1277243E1,-2.6569493E0,1.100593E0,-5.939738E-1,3.151474E0,-4.4897443E-1,1.5602802E0,8.806512E-1,5.593818E0,-8.534225E-1,-6.2391157E0,-5.485416E0,2.9803866E-1,8.561178E0,3.3828523E-2,4.0455894E0,-1.2737097E0,4.1055093E0,-1.311093E0,6.7053604E0,-1.8962566E0,7.3350887E0,-2.7697182E0,-3.6290283E0,7.47736E-1,-1.1728579E1,-7.412714E-1,-2.250969E0,3.9468231E0,-1.8536733E0,1.6122305E1,-3.36481E0,1.8733482E0],"categories":[],"categories_nodes":[],"categories_segments":[],"categories_sizes":[],"default_left":[1,1,1,1,1,1,1,1,1,0,0,1,1,1,0,1,1,0,0,1,0,1,1,0,0,1,1,1,1,1,0,1,1,1,1,0,0,0,0,0,0,0,0,0,0,0,0,0,0,0,0,0,0],"id":22,"left_children":[1,3,5,7,9,11,13,15,17,-1,-1,19,21,23,-1,25,27,-1,-1,29,-1,31,33,-1,-1,35,37,39,41,43,-1,45,47,49,51,-1,-1,-1,-1,-1,-1,-1,-1,-1,-1,-1,-1,-1,-1,-1,-1,-1,-1],"loss_changes":[2.5330287E2,3.675556E2,3.315786E2,2.6126407E2,6.2728973E1,3.6106567E2,2.0602124E2,2.685261E2,7.5427216E1,0E0,0E0,1.0745569E2,2.8521848E2,1.9080326E1,0E0,1.868192E2,2.1160388E2,0E0,0E0,5.854088E1,0E0,3.4431628E2,3.180579E2,0E0,0E0,4.5367877E2,5.535054E2,3.5238336E2,2.970166E2,2.4934479E1,0E0,6.132937E2,2.0420055E2,4.2362546E2,2.3137051E2,0E0,0E0,0E0,0E0,0E0,0E0,0E0,0E0,0E0,0E0,0E0,0E0,0E0,0E0,0E0,0E0,0E0,0E0],"parents":[2147483647,0,0,1,1,2,2,3,3,4,4,5,5,6,6,7,7,8,8,11,11,12,12,13,13,15,15,16,16,19,19,21,21,22,22,25,25,26,26,27,27,28,28,29,29,31,31,32,32,33,33,34,34],"right_children":[2,4,6,8,10,12,14,16,18,-1,-1,20,22,24,-1,26,28,-1,-1,30,-1,32,34,-1,-1,36,38,40,42,44,-1,46,48,50,52,-1,-1,-1,-1,-1,-1,-1,-1,-1,-1,-1,-1,-1,-1,-1,-1,-1,-1],"split_conditions":[5.416666E-1,8.787879E-1,6.95946E-1,8.484849E-1,5.1666665E-1,5.710784E-1,2.5965667E-1,4.9264705E-1,5.75E-1,-5.180077E-1,-4.0812426E0,4.0267983E-1,5.681818E-1,2.1244635E-1,4.3311152E0,3.716216E-1,5E-1,4.156975E0,4.384186E-1,6.136364E-1,-3.383173E0,5E-1,4.675238E-1,-1.7819215E-1,9.4544226E-1,1.7529881E-1,4.583333E-1,2.8755364E-1,7.75E-1,4.3333334E-1,-1.8717347E0,4.527027E-1,6.75E-1,6.583333E-1,6.2600553E-1,1.2136769E0,-3.8211292E-1,1.2316529E0,-3.9332792E-1,2.0116081E0,-5.68877E-1,2.2005267E0,-8.309155E-1,-1.0887085E0,2.243208E-1,-3.5185738E0,-2.2238143E-1,-6.752907E-1,1.184047E0,-5.5610204E-1,4.836692E0,-1.009443E0,5.620045E-1],"split_indices":[4,9,6,9,0,4,2,4,0,0,0,7,9,2,0,6,1,0,0,9,0,1,8,0,0,5,0,2,0,0,0,6,0,0,8,0,0,0,0,0,0,0,0,0,0,0,0,0,0,0,0,0,0],"split_type":[0,0,0,0,0,0,0,0,0,0,0,0,0,0,0,0,0,0,0,0,0,0,0,0,0,0,0,0,0,0,0,0,0,0,0,0,0,0,0,0,0,0,0,0,0,0,0,0,0,0,0,0,0],"sum_hessian":[3.31E2,2.36E2,9.5E1,2.34E2,2E0,9E1,5E0,2.32E2,2E0,1E0,1E0,1.1E1,7.9E1,4E0,1E0,1.94E2,3.8E1,1E0,1E0,8E0,3E0,4E1,3.9E1,2E0,2E0,1.2E2,7.4E1,2E1,1.8E1,4E0,4E0,2E1,2E1,4E0,3.5E1,1.8E1,1.02E2,3.9E1,3.5E1,6E0,1.4E1,1.5E1,3E0,1E0,3E0,8E0,1.2E1,1.2E1,8E0,2E0,2E0,1.2E1,2.3E1],"tree_param":{"num_deleted":"0","num_feature":"10","num_nodes":"53","size_leaf_vector":"0"}},{"base_weights":[1.7775421E-1,4.7122735E-1,-1.5268198E0,3.901675E-1,7.933777E0,-6.030485E0,-6.3262594E-1,1.4742231E-1,2.677301E0,-1.6413898E0,-8.335665E0,4.735713E0,-1.8415998E0,5.775596E-1,-2.678108E0,4.886807E0,5.839091E-1,-2.158109E0,-4.561615E-2,-1.425267E0,1.125301E1,2.9111671E0,-3.5987563E0,1.2753275E-1,2.9912026E0,-1.0067202E1,-7.351878E-1,1.0037392E1,2.337892E0,-2.2073919E-1,2.2373536E0,5.19162E0,-4.3773937E0,1.2942653E1,3.092041E0,-4.84243E0,4.3107257E0,4.3015347E0,-4.816252E0,1.042012E0,-2.5065305E0,-5.4502845E0,4.925658E0,-1.3658304E1,-7.2629803E-1,1.164595E0,-4.2712564E0,4.3082404E0,-4.94104E-1,-1.0973206E0,4.3692452E-1,5.3434247E-1,3.19458E0,-4.970011E0,-1.2997704E0,1.7761955E0,7.0348396E0,7.3006134E0,-2.3478508E0,-8.283713E0,5.198181E-1],"categories":[],"categories_nodes":[],"categories_segments":[],"categories_sizes":[],"default_left":[1,1,1,1,0,1,1,1,1,1,0,1,1,1,1,1,1,0,0,1,1,1,1,1,1,1,1,0,1,1,1,0,1,0,0,0,1,1,1,0,0,0,0,0,0,0,0,0,0,0,0,0,0,0,0,0,0,0,0,0,0],"id":23,"left_children":[1,3,5,7,-1,9,11,13,15,17,-1,19,21,23,25,27,29,-1,-1,31,33,35,37,39,41,43,45,-1,47,49,51,-1,53,-1,-1,-1,55,57,59,-1,-1,-1,-1,-1,-1,-1,-1,-1,-1,-1,-1,-1,-1,-1,-1,-1,-1,-1,-1,-1,-1],"loss_changes":[1.6680139E2,1.6869983E2,1.9351532E2,1.5616907E2,0E0,6.7259125E1,2.8130893E2,3.1268045E2,1.2203133E2,3.1998234E0,0E0,3.3726202E2,3.0277405E2,2.4184204E2,4.8071698E2,1.4720288E2,2.0450489E1,0E0,0E0,1.2039521E2,1.5137299E1,1.2939052E2,2.7080017E2,4.5787427E2,5.983851E2,2.2488892E2,1.9307162E2,0E0,5.7928898E1,6.8209E0,6.443838E0,0E0,8.355408E-1,0E0,0E0,0E0,4.964389E1,9.6908875E1,4.2986615E2,0E0,0E0,0E0,0E0,0E0,0E0,0E0,0E0,0E0,0E0,0E0,0E0,0E0,0E0,0E0,0E0,0E0,0E0,0E0,0E0,0E0,0E0],"parents":[2147483647,0,0,1,1,2,2,3,3,5,5,6,6,7,7,8,8,9,9,11,11,12,12,13,13,14,14,15,15,16,16,19,19,20,20,21,21,22,22,23,23,24,24,25,25,26,26,28,28,29,29,30,30,32,32,36,36,37,37,38,38],"right_children":[2,4,6,8,-1,10,12,14,16,18,-1,20,22,24,26,28,30,-1,-1,32,34,36,38,40,42,44,46,-1,48,50,52,-1,54,-1,-1,-1,56,58,60,-1,-1,-1,-1,-1,-1,-1,-1,-1,-1,-1,-1,-1,-1,-1,-1,-1,-1,-1,-1,-1,-1],"split_conditions":[5.2589643E-1,5.234064E-1,5.423307E-1,6.2875533E-1,2.3801332E0,2.4324325E-1,5.089402E-1,5E-1,6.285714E-1,3.3571428E-1,-2.5006995E0,3.1759655E-1,4.0714288E-1,4.055794E-1,5.300429E-1,1.6891891E-1,8.004292E-1,-6.474327E-1,-1.36848455E-2,2.3390558E-1,8.416667E-1,1.3807143E-1,6.004902E-1,3.1330472E-1,2.5946215E-1,3.4113544E-1,2.9054055E-1,3.0112176E0,7.2103E-1,1.6891891E-1,3.3578432E-1,1.557486E0,6.75E-1,3.882796E0,9.2761236E-1,-1.4527291E0,6.583333E-1,5.083333E-1,7.023044E-1,3.126036E-1,-7.519592E-1,-1.6350855E0,1.4776975E0,-4.0974913E0,-2.1788941E-1,3.4937853E-1,-1.281377E0,1.2924721E0,-1.4823121E-1,-3.2919618E-1,1.3107736E-1,1.6030274E-1,9.583741E-1,-1.4910034E0,-3.899311E-1,5.3285867E-1,2.110452E0,2.190184E0,-7.0435524E-1,-2.485114E0,1.5594545E-1],"split_indices":[5,5,5,2,0,6,8,2,3,3,0,2,3,2,2,6,2,0,0,2,0,3,4,2,5,5,6,0,2,6,4,0,0,0,0,0,0,0,8,0,0,0,0,0,0,0,0,0,0,0,0,0,0,0,0,0,0,0,0,0,0],"split_type":[0,0,0,0,0,0,0,0,0,0,0,0,0,0,0,0,0,0,0,0,0,0,0,0,0,0,0,0,0,0,0,0,0,0,0,0,0,0,0,0,0,0,0,0,0,0,0,0,0,0,0,0,0,0,0,0,0,0,0,0,0],"sum_hessian":[3.31E2,2.83E2,4.8E1,2.81E2,2E0,7E0,4.1E1,2.55E2,2.6E1,3E0,4E0,7E0,3.4E1,2.22E2,3.3E1,1.2E1,1.4E1,2E0,1E0,4E0,3E0,9E0,2.5E1,1.88E2,3.4E1,6E0,2.7E1,3E0,9E0,1E1,4E0,1E0,3E0,2E0,1E0,1E0,8E0,3E0,2.2E1,1.4E2,4.8E1,6E0,2.8E1,4E0,2E0,1.8E1,9E0,5E0,4E0,4E0,6E0,2E0,2E0,2E0,1E0,5E0,3E0,2E0,1E0,1.3E1,9E0],"tree_param":{"num_deleted":"0","num_feature":"10","num_nodes":"61","size_leaf_vector":"0"}},{"base_weights":[1.3431942E-1,8.3085984E-2,8.546295E0,6.41626E0,2.508414E-2,8.13694E0,1.4874496E0,-5.0517306E0,1.190218E-1,-6.1102467E0,-1.9564654E0,9.391056E0,6.124134E-2,-5.4988737E0,1.481985E-1,-1.4111443E0,-6.1680202E0,4.8427043E0,-3.518548E-2],"categories":[],"categories_nodes":[],"categories_segments":[],"categories_sizes":[],"default_left":[1,1,0,1,1,0,0,1,1,0,0,0,1,1,1,0,0,0,0],"id":24,"left_children":[1,3,-1,5,7,-1,-1,9,11,-1,-1,-1,13,15,17,-1,-1,-1,-1],"loss_changes":[1.4237346E2,1.21427185E2,0E0,1.3339439E1,1.5750272E2,0E0,0E0,7.703842E0,1.7300543E2,0E0,0E0,0E0,1.569828E2,4.972473E0,2.747966E2,0E0,0E0,0E0,0E0],"parents":[2147483647,0,0,1,1,3,3,4,4,7,7,8,8,12,12,13,13,14,14],"right_children":[2,4,-1,6,8,-1,-1,10,12,-1,-1,-1,14,16,18,-1,-1,-1,-1],"split_conditions":[9.857143E-1,8.899778E-2,2.5638885E0,4.8333335E-1,1.4688939E-1,2.441082E0,4.462349E-1,4.4594595E-1,1.5990445E-1,-1.8330741E0,-5.8693963E-1,2.817317E0,1.9260898E-1,1.25E-1,2.261566E-1,-4.233433E-1,-1.8504062E0,1.4528114E0,-1.0555644E-2],"split_indices":[3,8,0,0,8,0,0,6,8,0,0,0,8,0,8,0,0,0,0],"split_type":[0,0,0,0,0,0,0,0,0,0,0,0,0,0,0,0,0,0,0],"sum_hessian":[3.31E2,3.3E2,1E0,2E0,3.28E2,1E0,1E0,5E0,3.23E2,3E0,2E0,1E0,3.22E2,4E0,3.18E2,1E0,3E0,1.1E1,3.07E2],"tree_param":{"num_deleted":"0","num_feature":"10","num_nodes":"19","size_leaf_vector":"0"}},{"base_weights":[1.09138064E-1,5.6538963E-1,-6.607468E-1,-6.3631344E-1,1.761708E0,2.901568E-1,-2.9044974E0,4.428103E-1,-8.307251E0,-7.527456E-1,3.1990511E0,-8.137803E-1,1.0070691E1,-4.494675E0,4.552647E0,3.149271E0,-1.7516927E0,-1.102608E1,1.2159348E1,-2.7104702E0,2.5603116E0,1.4497717E1,2.251553E0,1.1596186E0,-2.224031E0,-1.6004391E0,1.6172997E1,-7.439498E0,-3.874261E-1,6.685028E0,1.2821045E0,-2.482414E0,6.369926E0,-7.4729714E0,-5.416199E-1,-2.8695126E0,-1.644227E1,-4.130934E0,3.7975707E0,8.165509E0,-1.0588382E0,1.7985313E1,2.7366638E-1,-9.033971E0,3.380201E0,-9.7082996E-1,2.892648E0,-7.6925516E-1,-6.9151835E0,1.8517876E0,-3.3684437E0,1.8452225E0,1.8669506E1,-9.8965845E0,-2.1645648E0,3.1738477E0,-5.664766E0,1.7433777E0,7.751119E0,6.942749E-2,1.6631876E0,-7.2846413E0,6.735405E0,1.0945679E1,-2.619041E-1,-9.678461E0,1.6416168E-1,1.1533835E0,-5.731483E0,1.4618187E0,-4.0281425E0,-5.045748E0,3.0398712E0,1.1698853E1,7.32549E-1,-3.701968E0,3.8313484E0,-3.3027706E0,-1.3664248E1,6.12419E0,4.2503345E-1,4.161753E0,-3.6821635E0,4.0636086E0,-1.1987641E0,-8.983027E0,-4.323883E-2,-2.833622E0,-9.844214E0,-9.418793E-1,-4.1107864E0,-1.317566E1,-4.4215646E0,-4.632857E0,2.6707764E0,-1.4241989E0,7.1371245E0,-6.9621534E0,4.1108704E-1],"categories":[],"categories_nodes":[],"categories_segments":[],"categories_sizes":[],"default_left":[1,1,1,1,1,1,1,1,1,1,1,1,1,1,1,1,1,1,0,1,1,1,1,1,1,1,1,1,1,1,1,1,1,1,1,1,0,1,0,1,1,0,0,1,1,1,1,1,1,0,1,0,0,1,1,1,1,0,0,0,0,0,0,0,0,0,0,0,0,0,0,0,0,0,0,0,0,0,0,0,0,0,0,0,0,0,0,0,0,0,0,0,0,0,0,0,0,0,0],"id":25,"left_children":[1,3,5,7,9,11,13,15,17,19,21,23,25,27,29,31,33,35,-1,37,39,41,43,45,47,49,51,53,55,57,59,61,63,65,67,69,-1,71,-1,73,75,-1,-1,77,79,81,83,85,87,-1,89,-1,-1,91,93,95,97,-1,-1,-1,-1,-1,-1,-1,-1,-1,-1,-1,-1,-1,-1,-1,-1,-1,-1,-1,-1,-1,-1,-1,-1,-1,-1,-1,-1,-1,-1,-1,-1,-1,-1,-1,-1,-1,-1,-1,-1,-1,-1],"loss_changes":[1.16992294E2,3.0158347E2,2.6540796E2,8.7285706E2,3.8189194E2,9.5833966E2,4.5921558E2,5.578748E2,8.574574E2,2.5989572E2,6.8462384E2,2.2521799E2,6.668711E2,3.7206647E2,4.0247406E1,7.775968E2,3.5595703E2,4.8294885E2,0E0,2.4679839E2,3.129367E2,2.431167E2,8.3299194E2,1.2834068E2,3.154355E2,3.0651855E1,1.8016711E2,2.1187549E2,2.8109583E2,7.5598755E0,1.7330523E0,7.5732196E2,8.221981E2,1.5318143E2,3.9367136E2,3.5998875E1,0E0,1.5309753E2,0E0,1.4900919E2,1.4343752E2,0E0,0E0,1.1409244E2,4.67716E2,2.3798259E2,9.58981E1,2.2025488E2,1.0361047E2,0E0,1.5321617E0,0E0,0E0,1.5717908E2,9.591855E1,1.741747E2,5.0158478E1,0E0,0E0,0E0,0E0,0E0,0E0,0E0,0E0,0E0,0E0,0E0,0E0,0E0,0E0,0E0,0E0,0E0,0E0,0E0,0E0,0E0,0E0,0E0,0E0,0E0,0E0,0E0,0E0,0E0,0E0,0E0,0E0,0E0,0E0,0E0,0E0,0E0,0E0,0E0,0E0,0E0,0E0],"parents":[2147483647,0,0,1,1,2,2,3,3,4,4,5,5,6,6,7,7,8,8,9,9,10,10,11,11,12,12,13,13,14,14,15,15,16,16,17,17,19,19,20,20,21,21,22,22,23,23,24,24,25,25,26,26,27,27,28,28,29,29,30,30,31,31,32,32,33,33,34,34,35,35,37,37,39,39,40,40,43,43,44,44,45,45,46,46,47,47,48,48,50,50,53,53,54,54,55,55,56,56],"right_children":[2,4,6,8,10,12,14,16,18,20,22,24,26,28,30,32,34,36,-1,38,40,42,44,46,48,50,52,54,56,58,60,62,64,66,68,70,-1,72,-1,74,76,-1,-1,78,80,82,84,86,88,-1,90,-1,-1,92,94,96,98,-1,-1,-1,-1,-1,-1,-1,-1,-1,-1,-1,-1,-1,-1,-1,-1,-1,-1,-1,-1,-1,-1,-1,-1,-1,-1,-1,-1,-1,-1,-1,-1,-1,-1,-1,-1,-1,-1,-1,-1,-1,-1],"split_conditions":[4.188247E-1,5.083333E-1,3.8513514E-1,4.75E-1,4.2142856E-1,3.310811E-1,4.334764E-1,4.0151516E-1,7.5757575E-1,1.4456981E-1,1.7828685E-1,4.309286E-1,4.2142856E-1,4.9324325E-1,6.740196E-1,3.310811E-1,4.469697E-1,2.0386267E-1,3.6478045E0,5.530303E-1,3.3578432E-1,5.9227467E-1,2.8431374E-1,5.269608E-1,2.635135E-1,3.1545064E-1,3.4166667E-1,6.583333E-1,4.8187375E-1,4.6566522E-1,3.4166667E-1,3.6909872E-1,4.797297E-1,4.1216218E-1,4.547857E-1,2.6960784E-1,-4.932681E0,3.8841203E-1,1.1392713E0,3.0714285E-1,4.3382353E-1,5.395594E0,8.2099915E-2,6.357143E-1,6.214286E-1,4.3874502E-1,5.966135E-1,3.903643E-1,5.661765E-1,5.5553627E-1,5.416666E-1,5.5356675E-1,5.600852E0,5.530303E-1,4.6212122E-1,3.5000002E-1,5E-1,5.2301335E-1,2.3253357E0,2.0828247E-2,4.989563E-1,-2.1853924E0,2.0206215E0,3.2837038E0,-7.857123E-2,-2.9035385E0,4.9248505E-2,3.4601507E-1,-1.719445E0,4.385456E-1,-1.2084428E0,-1.5137246E0,9.119614E-1,3.509656E0,2.1976471E-1,-1.1105905E0,1.1494045E0,-9.908312E-1,-4.0992746E0,1.837257E0,1.2751004E-1,1.248526E0,-1.1046491E0,1.2190826E0,-3.5962924E-1,-2.6949084E0,-1.297165E-2,-8.500866E-1,-2.9532645E0,-2.825638E-1,-1.233236E0,-3.9526982E0,-1.3264694E0,-1.389857E0,8.0123293E-1,-4.2725968E-1,2.1411374E0,-2.0886462E0,1.23326115E-1],"split_indices":[5,0,6,0,3,6,2,9,9,7,5,3,3,6,4,6,9,2,0,9,4,2,4,4,6,2,0,0,8,2,0,2,6,6,3,4,0,2,0,3,4,0,0,3,3,5,5,8,4,0,0,0,0,9,9,3,1,0,0,0,0,0,0,0,0,0,0,0,0,0,0,0,0,0,0,0,0,0,0,0,0,0,0,0,0,0,0,0,0,0,0,0,0,0,0,0,0,0,0],"split_type":[0,0,0,0,0,0,0,0,0,0,0,0,0,0,0,0,0,0,0,0,0,0,0,0,0,0,0,0,0,0,0,0,0,0,0,0,0,0,0,0,0,0,0,0,0,0,0,0,0,0,0,0,0,0,0,0,0,0,0,0,0,0,0,0,0,0,0,0,0,0,0,0,0,0,0,0,0,0,0,0,0,0,0,0,0,0,0,0,0,0,0,0,0,0,0,0,0,0,0],"sum_hessian":[3.31E2,2.08E2,1.23E2,1.04E2,1.04E2,8.7E1,3.6E1,9.2E1,1.2E1,3.8E1,6.6E1,7.9E1,8E0,3E1,6E0,4.1E1,5.1E1,1.1E1,1E0,2.4E1,1.4E1,4E0,6.2E1,3.3E1,4.6E1,3E0,5E0,1.7E1,1.3E1,3E0,3E0,1.5E1,2.6E1,8E0,4.3E1,5E0,6E0,2E1,4E0,5E0,9E0,3E0,1E0,5E0,5.7E1,1.5E1,1.8E1,3.6E1,1E1,1E0,2E0,1E0,4E0,1.1E1,6E0,8E0,5E0,1E0,2E0,1E0,2E0,1E1,5E0,1.5E1,1.1E1,6E0,2E0,3.3E1,1E1,1E0,4E0,1.8E1,2E0,3E0,2E0,6E0,3E0,3E0,2E0,2.9E1,2.8E1,5E0,1E1,1.4E1,4E0,2E0,3.4E1,5E0,5E0,1E0,1E0,6E0,5E0,4E0,2E0,4E0,4E0,4E0,1E0],"tree_param":{"num_deleted":"0","num_feature":"10","num_nodes":"99","size_leaf_vector":"0"}},{"base_weights":[7.745493E-2,-2.2909484E0,2.0462392E-1,-3.2172623E0,3.104271E0,1.3295656E0,-2.217872E-1,-8.580044E-1,-6.613148E0,3.4387424E0,-6.2510806E-1,-2.5943577E0,2.6129636E-1,-2.733764E0,1.5645081E0,-8.784547E0,-1.5135676E0,9.762139E0,1.1576142E0,3.9066925E0,-1.5386797E0,-6.22879E-1,-9.096745E0,5.0070053E-1,-4.662222E0,-3.4753928E-1,-3.8399916E0,2.0878448E0,-2.6441956E-1,3.3695166E0,1.6759382E1,1.1627342E1,-3.2640392E-1,-1.2063547E0,5.812101E0,-3.7072587E0,9.391538E-1,-1.549871E0,8.54567E0,-1.5343776E1,-1.030365E0,1.146296E0,-1.4055309E0,6.0039725E0,-8.567416E0,-4.9438477E-3,-5.1636505E-1,-1.1804848E0,-4.3329988E0,-2.341357E0,6.1221375E0,1.8229965E1,-4.0902634E0,-3.00616E0,4.331939E0,9.924698E-1,-2.802002E0,1.2425461E0,6.4775023E0,8.780098E-1,-4.837793E0,9.132469E0,-2.3389816E-2,-5.92933E0,4.008433E-1,2.4830627E0,1.0335442E1,-6.653595E-1,-1.884704E1,4.8558554E-1,-2.2028606E0,9.717168E-2,5.455764E0,-6.665211E0,3.8673836E-1,-1.1361082E1,-3.631897E0],"categories":[],"categories_nodes":[],"categories_segments":[],"categories_sizes":[],"default_left":[1,1,1,1,0,1,1,1,1,1,1,1,1,1,1,0,0,1,1,1,1,1,1,1,1,1,1,0,0,1,0,1,1,1,1,1,1,1,1,1,1,1,1,0,1,0,0,0,0,0,0,0,0,0,0,0,0,0,0,0,0,0,0,0,0,0,0,0,0,0,0,0,0,0,0,0,0],"id":26,"left_children":[1,3,5,7,-1,9,11,13,15,17,19,21,23,25,27,-1,-1,29,31,33,35,37,39,41,43,45,47,-1,-1,49,-1,51,53,55,57,59,61,63,65,67,69,71,73,-1,75,-1,-1,-1,-1,-1,-1,-1,-1,-1,-1,-1,-1,-1,-1,-1,-1,-1,-1,-1,-1,-1,-1,-1,-1,-1,-1,-1,-1,-1,-1,-1,-1],"loss_changes":[1.0046301E2,9.49476E1,1.5187619E2,1.1450244E2,0E0,3.6082904E2,2.6429236E2,4.9717506E1,5.314334E1,5.945274E2,1.964569E2,4.942873E2,2.2864688E2,1.4503696E1,5.3377924E0,0E0,0E0,4.3556702E2,5.0098773E2,8.4951E1,2.1304338E2,2.76719E2,4.3770862E2,2.2805154E2,4.2632062E2,1.7096397E-1,1.295929E-1,0E0,0E0,1.2437319E2,0E0,4.89675E2,3.7503595E2,1.3306547E1,1.0194946E1,1.1310751E2,1.5005563E2,2.5012584E2,6.888504E0,2.4457178E2,9.956904E0,6.2339105E2,4.4563556E2,0E0,5.5255066E1,0E0,0E0,0E0,0E0,0E0,0E0,0E0,0E0,0E0,0E0,0E0,0E0,0E0,0E0,0E0,0E0,0E0,0E0,0E0,0E0,0E0,0E0,0E0,0E0,0E0,0E0,0E0,0E0,0E0,0E0,0E0,0E0],"parents":[2147483647,0,0,1,1,2,2,3,3,5,5,6,6,7,7,8,8,9,9,10,10,11,11,12,12,13,13,14,14,17,17,18,18,19,19,20,20,21,21,22,22,23,23,24,24,25,25,26,26,29,29,31,31,32,32,33,33,34,34,35,35,36,36,37,37,38,38,39,39,40,40,41,41,42,42,44,44],"right_children":[2,4,6,8,-1,10,12,14,16,18,20,22,24,26,28,-1,-1,30,32,34,36,38,40,42,44,46,48,-1,-1,50,-1,52,54,56,58,60,62,64,66,68,70,72,74,-1,76,-1,-1,-1,-1,-1,-1,-1,-1,-1,-1,-1,-1,-1,-1,-1,-1,-1,-1,-1,-1,-1,-1,-1,-1,-1,-1,-1,-1,-1,-1,-1,-1],"split_conditions":[9.656653E-2,5.1666665E-1,3.3571428E-1,7.510729E-2,9.312813E-1,4.583333E-1,3.8335717E-1,3.6480688E-2,9.227468E-2,3.2575756E-1,2.1323529E-1,5.622827E-1,8.5E-1,2.5E-1,2.5833333E-1,-2.635364E0,-4.540703E-1,2.8030303E-1,2.5522536E-1,1.4705883E-1,4.3223733E-1,7.2727275E-1,6.4033794E-1,4.1216215E-1,3.5784316E-1,5E-1,8.3333336E-2,6.263535E-1,-7.932587E-2,2.5833333E-1,5.027815E0,5E-1,3.8787025E-1,5.833334E-1,1.8454936E-1,1.0578279E-2,4.400534E-1,3.1756756E-1,4.3333334E-1,2.6666668E-1,6.166667E-1,3.310811E-1,4.3137252E-1,1.8011918E0,6.4215684E-1,-1.4831544E-3,-1.5490952E-1,-3.5414544E-1,-1.2998997E0,-7.024071E-1,1.8366413E0,5.46899E0,-1.227079E0,-9.01848E-1,1.2995818E0,2.9774094E-1,-8.406006E-1,3.7276384E-1,1.9432508E0,2.6340294E-1,-1.4513379E0,2.7397408E0,-7.016945E-3,-1.778799E0,1.2025299E-1,7.449188E-1,3.1006327E0,-1.9960786E-1,-5.6541123E0,1.4567567E-1,-6.608582E-1,2.9151505E-2,1.6367292E0,-1.9995635E0,1.16021514E-1,-3.4083247E0,-1.0895691E0],"split_indices":[2,0,3,2,0,0,3,2,2,9,4,8,0,3,0,0,0,9,8,4,8,9,8,6,4,1,0,0,0,0,0,1,7,0,2,7,8,6,0,0,0,6,4,0,4,0,0,0,0,0,0,0,0,0,0,0,0,0,0,0,0,0,0,0,0,0,0,0,0,0,0,0,0,0,0,0,0],"split_type":[0,0,0,0,0,0,0,0,0,0,0,0,0,0,0,0,0,0,0,0,0,0,0,0,0,0,0,0,0,0,0,0,0,0,0,0,0,0,0,0,0,0,0,0,0,0,0,0,0,0,0,0,0,0,0,0,0,0,0,0,0,0,0,0,0,0,0,0,0,0,0,0,0,0,0,0,0],"sum_hessian":[3.31E2,1.6E1,3.15E2,1.4E1,2E0,8.6E1,2.29E2,9E0,5E0,4.1E1,4.5E1,3.8E1,1.91E2,5E0,4E0,3E0,2E0,1E1,3.1E1,7E0,3.8E1,3E1,8E0,1.83E2,8E0,2E0,3E0,3E0,1E0,6E0,4E0,3E0,2.8E1,2E0,5E0,2E1,1.8E1,2.8E1,2E0,4E0,4E0,1.37E2,4.6E1,2E0,6E0,1E0,1E0,1E0,2E0,2E0,4E0,2E0,1E0,1.8E1,1E1,1E0,1E0,1E0,4E0,4E0,1.6E1,1E0,1.7E1,8E0,2E1,1E0,1E0,1E0,3E0,2E0,2E0,1.11E2,2.6E1,1.1E1,3.5E1,3E0,3E0],"tree_param":{"num_deleted":"0","num_feature":"10","num_nodes":"77","size_leaf_vector":"0"}},{"base_weights":[6.5069005E-2,2.5735247E0,-6.1746012E-2,-6.469397E-1,8.048789E0,-5.801397E0,4.8829786E-2,-2.4343877E0,1.9848754E0,-3.507741E-2,1.2099491E1,-1.0072054E1,1.8266119E0,9.3433404E-1,-2.9771778E-1,2.8616142E-1,-4.54634E0,3.11792E0,9.221344E-1,-1.4924126E0,1.4397964E0,1.3755321E1,3.566002E0,2.2126994E0,-5.184637E-1,-2.5996852E0,3.0265618E-3,1.9844971E0,-9.4144946E-1,1.0841471E0,2.180481E-1,4.2984514E0,-1.3864818E0,-3.7012181E0,3.3927906E-1,-5.2367063E0,3.466906E-2,3.2885318E0,-2.811416E-1,-2.4760501E0,6.0952454E0,4.922766E0,-3.5407503E0,-7.23413E0,5.7193756E-1,2.5465827E0,-1.7642454E0,-7.094437E-1,-7.169996E0,1.8181013E0,-7.110616E0,5.461543E0,-4.595888E0,-9.370328E0,-2.8505841E-2],"categories":[],"categories_nodes":[],"categories_segments":[],"categories_sizes":[],"default_left":[1,1,1,1,1,1,1,1,1,1,1,0,0,1,1,1,0,0,1,0,0,0,0,1,1,1,1,0,0,0,0,1,1,1,1,1,1,1,1,0,0,0,0,0,0,0,0,0,0,0,0,0,0,0,0],"id":27,"left_children":[1,3,5,7,9,11,13,15,17,19,21,-1,-1,23,25,27,-1,-1,29,-1,-1,-1,-1,31,33,35,37,-1,-1,-1,-1,39,41,43,45,47,49,51,53,-1,-1,-1,-1,-1,-1,-1,-1,-1,-1,-1,-1,-1,-1,-1,-1],"loss_changes":[1.0577138E2,2.8733337E2,2.0147253E2,5.657852E1,1.9689642E2,2.1385738E2,9.602139E1,4.152067E1,3.145523E0,8.596927E0,7.468506E0,0E0,0E0,1.6458136E2,1.5577618E2,1.0207885E1,0E0,0E0,2.198875E-1,0E0,0E0,0E0,0E0,3.5878873E2,1.1591509E2,1.8079958E2,1.8765175E2,0E0,0E0,0E0,0E0,3.8026367E2,2.6208295E2,1.400076E2,1.6235876E2,1.0869589E2,1.9133167E2,2.992276E2,4.245398E2,0E0,0E0,0E0,0E0,0E0,0E0,0E0,0E0,0E0,0E0,0E0,0E0,0E0,0E0,0E0,0E0],"parents":[2147483647,0,0,1,1,2,2,3,3,4,4,5,5,6,6,7,7,8,8,9,9,10,10,13,13,14,14,15,15,18,18,23,23,24,24,25,25,26,26,31,31,32,32,33,33,34,34,35,35,36,36,37,37,38,38],"right_children":[2,4,6,8,10,12,14,16,18,20,22,-1,-1,24,26,28,-1,-1,30,-1,-1,-1,-1,32,34,36,38,-1,-1,-1,-1,40,42,44,46,48,50,52,54,-1,-1,-1,-1,-1,-1,-1,-1,-1,-1,-1,-1,-1,-1,-1,-1],"split_conditions":[1.8382353E-1,1.5931374E-1,1.9852942E-1,2.3819742E-1,2.4521428E-1,4.166667E-1,3.3571428E-1,2.6666668E-1,3.9215688E-2,4.7500002E-1,5E-1,-3.0216162E0,5.479836E-1,4.583333E-1,3.642857E-1,2.5E-2,-1.3639021E0,9.35376E-1,6.4166665E-1,-4.4772378E-1,4.3193895E-1,4.1265965E0,1.0698006E0,5.0757575E-1,2.5346893E-1,4.166667E-1,2.1762949E-1,5.9534913E-1,-2.8243485E-1,3.2524413E-1,6.541443E-2,9.656653E-2,1.6891891E-1,2.5E-1,3.6802787E-1,2.794118E-1,6.4215684E-1,5.472973E-1,2.2808766E-1,-7.428151E-1,1.8285737E0,1.4768299E0,-1.0622251E0,-2.170239E0,1.7158127E-1,7.6397485E-1,-5.292736E-1,-2.1283312E-1,-2.1509988E0,5.454304E-1,-2.133185E0,1.638463E0,-1.3787665E0,-2.8110986E0,-8.551753E-3],"split_indices":[4,4,4,2,3,0,3,0,4,0,1,0,0,0,3,0,0,0,0,0,0,0,0,9,8,4,5,0,0,0,0,2,6,3,5,4,4,6,5,0,0,0,0,0,0,0,0,0,0,0,0,0,0,0,0],"split_type":[0,0,0,0,0,0,0,0,0,0,0,0,0,0,0,0,0,0,0,0,0,0,0,0,0,0,0,0,0,0,0,0,0,0,0,0,0,0,0,0,0,0,0,0,0,0,0,0,0,0,0,0,0,0,0],"sum_hessian":[3.31E2,1.5E1,3.16E2,1E1,5E0,5E0,3.11E2,6E0,4E0,2E0,3E0,3E0,2E0,8.7E1,2.24E2,3E0,3E0,1E0,3E0,1E0,1E0,2E0,1E0,4.6E1,4.1E1,2.5E1,1.99E2,1E0,2E0,2E0,1E0,2.9E1,1.7E1,8E0,3.3E1,1.2E1,1.3E1,1.5E1,1.84E2,6E0,2.3E1,4E0,1.3E1,4E0,4E0,1.6E1,1.7E1,4E0,8E0,1.1E1,2E0,1.2E1,3E0,4E0,1.8E2],"tree_param":{"num_deleted":"0","num_feature":"10","num_nodes":"55","size_leaf_vector":"0"}},{"base_weights":[3.412087E-2,1.0628475E-1,-3.331529E0,-1.5512496E-3,2.9281228E0,-1.4211069E0,-3.8114762E0,1.5378042E-1,-4.308334E0,4.1442108E-1,7.851921E0,-4.3047085E0,-9.192734E-1,8.044715E-2,5.6519966E0,-1.4644012E0,-7.428172E0,4.414345E0,-6.373625E-1,9.652446E0,1.225174E0,-3.6517033E-1,7.5004995E-1,7.248688E-2,7.487671E0,1.3076019E0,-3.870304E0,-1.0349297E1,-2.0309906E0,-1.443585E0,2.5030975E0,-2.5840217E-1,-9.845104E0,3.2771993E0,-2.3487195E-1,3.072942E0,-1.9942093E0,-2.4493332E0,-5.971527E-1,-2.3930557E0,6.200612E-1],"categories":[],"categories_nodes":[],"categories_segments":[],"categories_sizes":[],"default_left":[1,1,1,1,1,0,1,1,1,1,1,0,0,1,1,1,1,0,1,0,0,1,1,0,0,1,0,0,1,1,0,0,0,0,0,0,0,0,0,0,0],"id":28,"left_children":[1,3,5,7,9,-1,11,13,15,17,19,-1,-1,21,23,25,27,-1,29,-1,-1,31,33,-1,-1,35,-1,-1,37,39,-1,-1,-1,-1,-1,-1,-1,-1,-1,-1,-1],"loss_changes":[8.09897E1,9.9204956E1,1.0017929E0,2.1139114E2,1.4526952E2,0E0,3.175438E0,1.2252196E2,8.672089E1,4.0677025E1,3.5900574E1,0E0,0E0,9.038669E1,4.0425896E1,5.174501E1,5.7809845E1,0E0,2.386871E1,0E0,0E0,1.8166824E2,3.0194412E2,0E0,0E0,2.944337E1,0E0,0E0,3.3688068E-1,1.5199443E1,0E0,0E0,0E0,0E0,0E0,0E0,0E0,0E0,0E0,0E0,0E0],"parents":[2147483647,0,0,1,1,2,2,3,3,4,4,6,6,7,7,8,8,9,9,10,10,13,13,14,14,15,15,16,16,18,18,21,21,22,22,25,25,28,28,29,29],"right_children":[2,4,6,8,10,-1,12,14,16,18,20,